/*
 * Copyright (c) 2025 EdgeImpulse Inc.
 *
 * Generated by Edge Impulse and licensed under the applicable Edge Impulse
 * Terms of Service. Community and Professional Terms of Service
 * (https://edgeimpulse.com/legal/terms-of-service) or Enterprise Terms of
 * Service (https://edgeimpulse.com/legal/enterprise-terms-of-service),
 * according to your product plan subscription (the “License”).
 *
 * This software, documentation and other associated files (collectively referred
 * to as the “Software”) is a single SDK variation generated by the Edge Impulse
 * platform and requires an active paid Edge Impulse subscription to use this
 * Software for any purpose.
 *
 * You may NOT use this Software unless you have an active Edge Impulse subscription
 * that meets the eligibility requirements for the applicable License, subject to
 * your full and continued compliance with the terms and conditions of the License,
 * including without limitation any usage restrictions under the applicable License.
 *
 * If you do not have an active Edge Impulse product plan subscription, or if use
 * of this Software exceeds the usage limitations of your Edge Impulse product plan
 * subscription, you are not permitted to use this Software and must immediately
 * delete and erase all copies of this Software within your control or possession.
 * Edge Impulse reserves all rights and remedies available to enforce its rights.
 *
 * Unless required by applicable law or agreed to in writing, the Software is
 * distributed on an "AS IS" BASIS, WITHOUT WARRANTIES OR CONDITIONS OF ANY KIND,
 * either express or implied. See the License for the specific language governing
 * permissions, disclaimers and limitations under the License.
 */
// Generated on: 01.05.2025 19:38:44

#include <stdio.h>
#include <stdlib.h>
#include "edge-impulse-sdk/tensorflow/lite/c/builtin_op_data.h"
#include "edge-impulse-sdk/tensorflow/lite/c/common.h"
#include "edge-impulse-sdk/tensorflow/lite/micro/micro_mutable_op_resolver.h"
#include "edge-impulse-sdk/porting/ei_classifier_porting.h"

#if EI_CLASSIFIER_PRINT_STATE
#if defined(__cplusplus) && EI_C_LINKAGE == 1
extern "C" {
    extern void ei_printf(const char *format, ...);
}
#else
extern void ei_printf(const char *format, ...);
#endif
#endif

#define STRINGIZE(x) #x
#define STRINGIZE_VALUE_OF(x) STRINGIZE(x)

#if defined (__GNUC__)  /* GNU compiler */
#define ALIGN(X) __attribute__((aligned(X)))
#define DEFINE_SECTION(x) __attribute__((section(x)))
#elif defined (_MSC_VER)
#define ALIGN(X) __declspec(align(X))
#elif defined (__TASKING__) /* TASKING Compiler */
#define ALIGN(X) __align(X)
#define DEFINE_SECTION(x) __attribute__((section(x)))
#elif defined (__ARMCC_VERSION) /* Arm Compiler */
#define ALIGN(X) __ALIGNED(x)
#define DEFINE_SECTION(x) __attribute__((section(x)))
#elif defined (__ICCARM__) /* IAR Compiler */
#define ALIGN(x) __attribute__((aligned(x)))
#define DEFINE_SECTION(x) __attribute__((section(x)))
#elif defined (__clang__) /* LLVM/Clang Compiler */
#define ALIGN(X) __ALIGNED(x)
#define DEFINE_SECTION(x) __attribute__((section(x)))
#endif

#if defined(EI_MODEL_SECTION) && (defined(__GNUC__) || defined(__clang__))
#define MODEL_SECTION(X) __attribute__((section(STRINGIZE_VALUE_OF(X))))
#else
#define MODEL_SECTION(X)
#endif

#ifndef EI_MAX_SCRATCH_BUFFER_COUNT
#ifndef CONFIG_IDF_TARGET_ESP32S3
#define EI_MAX_SCRATCH_BUFFER_COUNT 30
#else
#define EI_MAX_SCRATCH_BUFFER_COUNT 60
#endif // CONFIG_IDF_TARGET_ESP32S3
#endif // EI_MAX_SCRATCH_BUFFER_COUNT

#ifndef EI_MAX_OVERFLOW_BUFFER_COUNT
#define EI_MAX_OVERFLOW_BUFFER_COUNT 10
#endif // EI_MAX_OVERFLOW_BUFFER_COUNT

using namespace tflite;
using namespace tflite::ops;
using namespace tflite::ops::micro;

namespace {

#if defined(EI_CLASSIFIER_ALLOCATION_STATIC_HIMAX) || defined(EI_CLASSIFIER_ALLOCATION_STATIC_HIMAX_GNU)
constexpr int kTensorArenaSize = 50032;
#else
constexpr int kTensorArenaSize = 49008;
#endif

#if defined(EI_CLASSIFIER_ALLOCATION_STATIC)
#if defined (EI_TENSOR_ARENA_LOCATION)
uint8_t tensor_arena[kTensorArenaSize] ALIGN(16) DEFINE_SECTION(STRINGIZE_VALUE_OF(EI_TENSOR_ARENA_LOCATION));
#else
uint8_t tensor_arena[kTensorArenaSize] ALIGN(16);
#endif
#elif defined(EI_CLASSIFIER_ALLOCATION_STATIC_HIMAX)
#pragma Bss(".tensor_arena")
uint8_t tensor_arena[kTensorArenaSize] ALIGN(16);
#pragma Bss()
#elif defined(EI_CLASSIFIER_ALLOCATION_STATIC_HIMAX_GNU)
uint8_t tensor_arena[kTensorArenaSize] ALIGN(16) __attribute__((section(".tensor_arena")));
#else
#define EI_CLASSIFIER_ALLOCATION_HEAP 1
uint8_t* tensor_arena = NULL;
#endif

static uint8_t* tensor_boundary;
static uint8_t* current_location;

template <int SZ, class T> struct TfArray {
  int sz; T elem[SZ];
};

enum used_operators_e {
  OP_CONV_2D, OP_DEPTHWISE_CONV_2D, OP_PAD, OP_MEAN, OP_FULLY_CONNECTED, OP_SOFTMAX,  OP_LAST
};

struct TensorInfo_t { // subset of TfLiteTensor used for initialization from constant memory
  TfLiteAllocationType allocation_type;
  TfLiteType type;
  void* data;
  TfLiteIntArray* dims;
  size_t bytes;
  TfLiteQuantization quantization;
};

typedef struct {
  TfLiteTensor tensor;
  int16_t index;
} TfLiteTensorWithIndex;

typedef struct {
  TfLiteEvalTensor tensor;
  int16_t index;
} TfLiteEvalTensorWithIndex;

TfLiteContext ctx{};
static const int MAX_TFL_TENSOR_COUNT = 4;
static TfLiteTensorWithIndex tflTensors[MAX_TFL_TENSOR_COUNT];
static const int MAX_TFL_EVAL_COUNT = 4;
static TfLiteEvalTensorWithIndex tflEvalTensors[MAX_TFL_EVAL_COUNT];
TfLiteRegistration registrations[OP_LAST];

namespace g0 {
const TfArray<4, int> tensor_dimension0 = { 4, { 1,96,96,1 } };
const TfArray<1, float> quant0_scale = { 1, { 0.0039215688593685627, } };
const TfArray<1, int> quant0_zero = { 1, { -128 } };
const TfLiteAffineQuantization quant0 = { (TfLiteFloatArray*)&quant0_scale, (TfLiteIntArray*)&quant0_zero, 0 };
const MODEL_SECTION(EI_MODEL_SECTION) ALIGN(16) int32_t tensor_data1[4*2] = { 
  0, 0, 
  0, 1, 
  0, 1, 
  0, 0, 
};
const TfArray<2, int> tensor_dimension1 = { 2, { 4,2 } };
const MODEL_SECTION(EI_MODEL_SECTION) ALIGN(8) int32_t tensor_data2[2] = { 1, 2, };
const TfArray<1, int> tensor_dimension2 = { 1, { 2 } };
const MODEL_SECTION(EI_MODEL_SECTION) ALIGN(16) int32_t tensor_data3[10] = { -1445, -502, -55, 777, 181, -37, -158, 505, 116, -164, };
const TfArray<1, int> tensor_dimension3 = { 1, { 10 } };
const TfArray<1, float> quant3_scale = { 1, { 0.00021960624144412577, } };
const TfArray<1, int> quant3_zero = { 1, { 0 } };
const TfLiteAffineQuantization quant3 = { (TfLiteFloatArray*)&quant3_scale, (TfLiteIntArray*)&quant3_zero, 0 };
const MODEL_SECTION(EI_MODEL_SECTION) ALIGN(16) int8_t tensor_data4[10*16] = { 
  -80, -31, -31, 35, 67, -19, -35, -65, 65, -11, 43, 60, -46, -13, -57, 17, 
  -31, 56, 25, 14, -11, -79, 100, -15, -67, -34, -83, -23, -42, -17, -22, -19, 
  -53, 42, -70, 21, -39, -3, -72, -48, 41, -7, -7, 56, 10, 37, 14, -54, 
  8, 22, -15, 15, -40, -79, -11, 88, -31, -55, -55, 8, -80, 74, -13, 64, 
  8, -31, -51, 12, -127, 46, -16, -51, 23, -20, -7, -8, 23, -39, -3, -12, 
  -13, -50, -8, -50, -29, 26, 57, -10, 36, 0, 61, 22, -29, -39, -80, -13, 
  -1, -43, 46, -46, 10, -55, -37, -44, 40, -45, 25, 19, -34, 19, 31, -74, 
  -8, -24, -63, -32, -21, 19, 28, -24, 19, 37, 23, -53, -32, -50, 46, 0, 
  16, 55, -50, 15, 54, -6, -13, 35, -63, 24, -68, 86, -14, -67, -58, -49, 
  -36, -32, -85, -12, -45, -26, -31, -15, 4, 33, -9, -14, 102, -66, 10, 2, 
};
const TfArray<2, int> tensor_dimension4 = { 2, { 10,16 } };
const TfArray<1, float> quant4_scale = { 1, { 0.0083511006087064743, } };
const TfArray<1, int> quant4_zero = { 1, { 0 } };
const TfLiteAffineQuantization quant4 = { (TfLiteFloatArray*)&quant4_scale, (TfLiteIntArray*)&quant4_zero, 0 };
const MODEL_SECTION(EI_MODEL_SECTION) ALIGN(16) int32_t tensor_data5[16] = { -427, 114, 728, -87, -341, -64, 240, 76, 452, -275, 176, -132, 453, 375, 1122, -103, };
const TfArray<1, int> tensor_dimension5 = { 1, { 16 } };
const TfArray<1, float> quant5_scale = { 1, { 0.00011690802784869447, } };
const TfArray<1, int> quant5_zero = { 1, { 0 } };
const TfLiteAffineQuantization quant5 = { (TfLiteFloatArray*)&quant5_scale, (TfLiteIntArray*)&quant5_zero, 0 };
const MODEL_SECTION(EI_MODEL_SECTION) ALIGN(16) int8_t tensor_data6[16*102] = { 
  -15, -57, 5, -7, -62, 20, 8, 36, 11, -43, -3, 40, 5, -19, 22, 45, 46, 11, -14, -49, -31, -16, 3, 22, -10, -77, 23, -3, 25, -34, 15, 11, -33, 62, 11, 31, 32, -48, -9, 35, -25, -72, -28, -12, 16, 13, 14, -10, -64, 32, 42, 35, 32, -17, -101, -14, 4, -32, -40, -20, 57, 10, 25, 27, 46, 1, -42, -2, 55, 9, 28, -11, -19, 53, 42, -25, 23, 42, 45, -10, 16, -5, 88, 36, -38, 37, 46, -41, 21, -24, 14, 11, -6, -24, -17, -9, -14, 10, -29, 9, -35, -62, 
  30, -62, -35, 31, 33, -25, 25, 35, 61, -32, 65, 24, -12, -8, -45, -34, 46, 18, -24, 0, -13, -16, -61, -10, -49, 29, -21, 57, 37, 43, -29, 33, 43, 29, -53, 29, 8, 12, -18, -34, -5, -33, -2, -23, -39, -33, 50, -42, 18, 16, 23, 15, -8, -11, 1, 28, 29, 3, 19, -53, 6, 19, -33, 17, -35, -10, -53, -43, 15, 37, 13, 2, 30, 37, 40, 43, 11, 37, 38, -24, 9, 17, 25, 5, 11, 27, -22, -34, -32, 21, -19, 11, 0, 18, 27, -3, 55, 28, 9, -24, -37, -31, 
  2, -27, 17, -21, 36, 25, 24, -79, -31, 29, -30, -39, 9, -7, -29, 21, 16, -26, 18, 37, 13, 15, -37, -3, -57, -33, -7, 10, 37, 4, -26, 37, 23, 0, 12, 7, -6, -9, -22, -35, -6, 36, -4, 30, 20, 38, 55, 55, 19, 36, -6, 1, 1, -64, 88, -45, 37, -11, -11, 8, 41, -13, -11, 7, -25, 18, 21, 22, 7, -17, 8, -28, -2, -19, 23, -53, -15, -86, -88, 49, 59, 4, -3, -36, 12, 15, 35, -11, 4, 58, -63, 16, 41, -31, 26, -14, 37, -13, 3, 52, -49, 79, 
  -31, 8, 29, 24, -13, 20, 29, 41, 11, 36, -7, 56, -25, -45, 18, 12, -47, 1, -34, -21, 37, -6, -50, 12, 16, 35, 4, 6, 36, -17, -35, 46, -14, -11, 22, 5, 16, -28, -4, -1, -29, -51, 11, -13, 25, -27, -40, -24, -49, -11, 10, 30, -26, -10, 17, 29, -43, 12, -4, 33, -13, -15, -40, -44, 27, 55, 16, 22, 30, -26, -39, 25, -48, 4, 37, -18, -16, -46, 3, -6, 53, -4, 15, 2, -29, -18, -43, -26, -36, 39, -7, 2, -18, -40, 18, -23, -27, -11, 31, 29, -8, 34, 
  -48, -14, 10, 24, -18, 8, -41, -6, -32, 57, 69, 64, -17, 44, 2, -22, -23, -1, 18, 23, -28, 26, 30, 12, 16, -24, -17, 44, 6, 11, -29, 42, 35, -45, 6, -12, 55, -4, -49, -3, -7, 20, 6, -8, 5, 12, 51, 4, -68, -56, 42, 8, -1, 39, 6, -12, 10, 10, -16, 1, -5, 3, 33, -54, -41, 6, 11, -54, 56, -8, 6, 4, 38, 35, -16, -14, 40, 68, -26, -5, 19, -34, -36, 39, -33, -39, 36, 18, -1, 30, 26, 10, -1, -37, -31, 9, 5, 23, 44, 29, -79, 3, 
  -41, 59, -15, -34, -6, 47, -17, -4, 14, -15, 82, -14, 8, 0, 42, -39, 40, -27, 9, -61, -9, 26, 57, 28, -1, 22, 19, 9, 16, -5, 2, 19, 34, -32, -43, -2, -2, 36, -58, 31, -9, -5, -16, -38, -15, 16, 29, -20, 107, -27, -41, 39, -7, -2, -62, 16, -52, -26, 26, 9, 23, -64, -10, 47, 24, -26, -11, -15, -39, -13, 52, 26, 27, -21, -83, 17, -14, -26, 34, 30, 40, 6, -61, 89, -6, -12, 18, 7, -26, 9, 22, 10, -61, -21, 45, -37, 6, -37, -13, -41, -1, -111, 
  -3, -16, -19, -20, 20, 3, 34, -6, -11, -66, 14, -28, -2, 2, 49, -59, -38, 18, 19, -5, 96, -8, -34, -16, 13, -39, 22, -4, 16, -53, -43, 39, 40, 36, -4, -10, 23, 32, 23, 3, 85, 30, 10, 78, -37, 12, 3, 52, 16, -9, -19, 30, -38, 29, 54, -35, -5, -44, 28, -17, -6, -9, -49, -21, -16, -97, 16, 2, -10, -11, 14, 25, 69, -40, -18, -62, 25, -49, 15, -14, 19, 26, 44, -29, 48, 9, -45, -15, 7, 21, 13, -8, 8, 10, 20, -2, 7, -54, 63, -9, -22, 25, 
  13, -13, 17, 12, -30, -7, 28, -22, 56, 5, -1, 35, 61, 19, 2, 35, 0, 27, 13, 9, -29, 19, -48, -31, -115, 33, -24, 43, 20, -52, -22, -33, -46, 56, -45, 9, 0, -16, 47, -20, -18, -12, 5, 5, 3, 3, -34, -45, -127, 13, -16, -35, -4, -33, -73, 21, -55, 21, 43, -59, 66, 6, 52, -7, 10, 55, -18, -53, -39, 43, -56, 3, -2, 52, 16, 31, -42, 61, 83, -26, -14, -1, 10, -39, 24, 22, -43, -12, -6, -25, -7, 11, -33, 0, -8, -40, 67, -62, -12, 63, 14, -20, 
  -28, 55, 27, -37, 17, -8, -20, -24, 16, 67, -31, -22, -1, -67, 38, 6, 22, -11, -11, -27, 47, 25, -3, 29, -45, 72, 2, -35, 21, 106, 28, 3, -5, -11, 73, -25, -14, -12, -66, 10, 2, 88, -40, -39, -7, 61, -6, 9, 70, 36, -47, 40, 18, -23, 20, 2, 18, -18, -39, 43, 16, -56, -52, 16, 1, 27, 42, 11, 18, -7, 16, -16, 27, -61, -31, -9, -12, -47, -31, 3, -2, -38, -57, -72, 14, -11, 44, 49, -19, 17, 14, -10, 48, 43, 2, -6, 32, 38, 17, 1, 21, 68, 
  24, -4, 2, -45, 13, -43, 27, 2, -44, 19, 17, -17, 10, -45, -33, 20, 22, 4, 3, -49, -6, 9, -35, 21, 41, 45, -13, 33, 21, 33, -36, -18, -13, -5, 24, -48, 23, -40, 40, 37, -37, 25, -10, 18, 25, -16, 6, 25, -48, -12, 13, -35, -5, 28, 31, -29, -36, -36, 32, 29, 35, -7, -9, -24, 30, 24, 6, 8, -3, -45, -27, -41, -29, 1, -39, 4, -23, -3, -16, 15, -46, -48, 3, 31, -5, -47, -32, 42, -42, -14, 25, 8, 31, -3, -32, -33, -30, -7, -44, -46, 39, -21, 
  20, -66, 35, 27, 16, -27, -31, -32, -37, 15, -37, -29, 8, -51, 27, -31, -16, 19, -4, 18, 27, -22, -53, 39, 11, -4, -2, -85, -12, 32, -32, -14, 10, -1, 3, -16, 9, -24, 5, 21, -31, -17, 24, 16, 20, 46, -16, 35, -44, -22, -24, 30, 7, 9, -36, -24, -18, -26, 2, -54, 4, -51, -62, 3, -24, -34, 5, 38, 27, -19, -33, 22, -9, 13, -5, 29, -47, -27, -16, 35, 35, 28, -32, -64, -14, 8, 37, 42, -53, -13, 5, -25, -70, 18, -29, 27, -31, 38, 26, -10, 48, -23, 
  -33, 29, 31, 30, 4, -31, 18, 76, 44, 41, 37, 48, -53, 3, -46, 6, 26, -22, -11, 20, -64, -25, 8, -57, 54, 6, 8, 63, 52, 16, -44, -12, -6, 26, 7, -42, 48, 21, -13, 18, 15, -41, 51, -18, 22, 41, -28, -44, -41, -1, 37, 40, 40, -11, -37, 44, -62, 57, -26, -21, -52, 36, -4, -54, -53, 66, -12, 23, -16, -36, 23, 3, -10, 1, -28, 56, 43, 20, 46, -12, -4, -8, 14, 50, 0, 0, 45, -4, -54, 1, 24, 22, -27, -51, -4, 55, -6, -15, 5, -27, -22, -28, 
  63, 34, 47, -34, 18, -4, -43, -42, 21, 5, -25, 27, -15, -47, -17, -24, -25, -21, 53, 2, -35, -35, 52, 43, 76, 24, 30, -51, 3, 69, 55, -33, 59, -8, 1, 18, -55, -9, 39, -7, -46, -84, -23, 12, -55, -41, 53, 39, 61, -42, 3, -34, -38, 23, -28, -11, -50, -43, -10, 14, -2, -20, -36, 31, 20, -21, 15, 30, -15, 4, 13, -44, -14, 28, -5, 22, -28, 44, -21, 22, -22, 21, -7, 4, -22, 18, -34, -15, -49, 5, 32, 4, 11, -40, 7, -42, -37, -16, 2, -7, -40, 17, 
  -2, -65, -18, 11, -10, -32, 34, -6, 39, -2, -67, -13, 71, 0, 10, 38, 17, 17, 5, 53, -45, -4, 25, -15, -71, 43, 0, 10, -25, -25, 21, -14, -20, 17, 35, 11, 3, -12, -16, -12, -10, 35, 29, -36, 51, 13, -42, -14, -21, -11, -13, -8, -4, -44, -2, -32, 2, 56, -23, 53, 40, 5, 10, -53, -27, 6, -2, -26, -3, 73, 13, -72, -14, 9, 36, -4, -23, -31, 37, 20, -7, 28, 50, -70, 33, 26, -31, 4, 30, 16, -29, -37, -10, 14, 10, 35, 66, 11, -10, 11, 27, -12, 
  17, -3, 51, -16, 0, 48, -23, -98, -41, 16, 38, -62, 48, 31, 6, 20, 40, 35, -6, 17, 9, -31, 7, -15, -7, -29, 49, -58, -18, 75, -7, 16, -34, 26, 64, 14, -46, 31, 31, -67, -45, 23, -30, 1, 9, 23, -4, -18, 5, 6, 24, -41, 8, 4, 59, -36, 68, 7, -61, 51, 17, -65, -25, 38, -15, 39, -33, -26, 42, 77, -3, -47, -67, 3, 36, -10, -9, -78, -67, -5, 39, -16, -30, -1, -38, 62, 8, 12, -42, -4, 48, 17, 5, -36, -16, 21, -18, -14, -65, 26, -6, 47, 
  8, -37, -1, 40, 22, -7, -22, -33, 34, 12, -30, -33, 45, -4, -1, -17, 13, 30, 1, 27, 17, 22, -42, 18, -15, 51, -22, -23, -7, -25, -34, -42, 2, 27, -28, 69, -38, 20, 20, 12, -37, -29, 47, 5, 41, -26, 6, 17, -52, 34, -34, 17, 1, 2, -5, -2, -41, -8, -10, -32, 36, 67, 46, 7, 35, 17, 40, -43, -20, 13, -64, 20, -5, -31, 23, -34, -19, -3, -4, -18, -22, -4, 49, -11, -49, -24, -52, 5, 13, -1, 14, 7, -32, 25, -59, 24, 73, 13, 22, 28, 45, 5, 
};
const TfArray<2, int> tensor_dimension6 = { 2, { 16,102 } };
const TfArray<1, float> quant6_scale = { 1, { 0.004968591034412384, } };
const TfArray<1, int> quant6_zero = { 1, { 0 } };
const TfLiteAffineQuantization quant6 = { (TfLiteFloatArray*)&quant6_scale, (TfLiteIntArray*)&quant6_zero, 0 };
const MODEL_SECTION(EI_MODEL_SECTION) ALIGN(16) int32_t tensor_data7[102] = { 249, 37595, -9582, 32314, 48190, 16726, 24614, 9345, 34066, 30840, -32924, 12239, 15180, 35956, -15938, 8872, -8202, 12073, 24417, -8959, -3254, 8564, 32573, 25670, -26637, 36210, 11863, -3948, 34785, 7935, 256, 3763, 9073, 30816, 20889, -11112, -1424, 52187, 25914, 8677, -1494, 8956, -18975, 463, 20550, -2862, 14455, -2650, 662, 9419, -5560, 24978, 6013, -11640, -17008, 2817, 22940, -16126, 12935, 36717, 9389, -12592, -15729, 9002, 13817, 10721, -1522, -100, 495, -7307, 24549, -3501, 40989, 28889, 32597, 37284, 3729, 26508, 22196, 31672, -334, -2312, 17959, 20620, 5122, 29704, 20168, -30569, -7715, 10072, -4616, 10079, 35431, -12028, 19424, 10692, 5258, 40313, -24947, 7567, 12401, 19516, };
const TfArray<1, int> tensor_dimension7 = { 1, { 102 } };
const TfArray<102, float> quant7_scale = { 102, { 0.00021950571681372821, 0.00022566529514733702, 0.00021659754565916955, 0.00022816138516645879, 0.00019584335677791387, 0.00021723141253460199, 0.00024737152853049338, 0.00025871355319395661, 0.00023242241877596825, 0.00017359667981509119, 0.0002650542592164129, 0.00029996834928169847, 0.00019078535842709243, 0.00025078622275032103, 0.00025059402105398476, 0.00023856607731431723, 0.00016704721201676875, 0.00038186649908311665, 0.00020807313558179885, 0.00019402403268031776, 0.00024062191369011998, 0.00020938226953148842, 0.00021077666315250099, 0.00032441233634017408, 0.00025171932065859437, 0.00018330107559449971, 0.00023183430312201381, 0.00020012097957078367, 0.00022327118495013565, 0.000228239776333794, 0.00027145797503180802, 0.00020329479593783617, 0.00030305128893814981, 0.00017366191605105996, 0.00021329396986402571, 0.00056136929197236896, 0.0001854200818343088, 0.00021520229347515851, 0.00020867070998065174, 0.00027957881684415042, 0.00016233771748375148, 0.00019914527365472168, 0.00021003853180445731, 0.00028248803573660553, 0.00018374796491116285, 0.00018889378407038748, 0.00040437155985273421, 0.00021871476201340556, 0.00023472256725654006, 0.00023534480715170503, 0.00032921886304393411, 0.00020092364866286516, 0.00019222171977162361, 0.00020580126147251576, 0.00016650880570523441, 0.00029510326567105949, 0.00019230991892982274, 0.0002255072322441265, 0.00019437265291344374, 0.00021631797426380217, 0.00025193823967128992, 0.00023817989858798683, 0.00020072383631486446, 0.00018804702267516404, 0.0001862241915659979, 0.0002119299751939252, 0.00027435962692834437, 0.00023102285922504961, 0.00025373839889653027, 0.00020878558279946446, 0.00029193572117947042, 0.00025308236945420504, 0.00020929123274981976, 0.00020389239944051951, 0.00020883484103251249, 0.00029660479049198329, 0.00026002319646067917, 0.0002658021985553205, 0.0002074074000120163, 0.00018652559083420783, 0.00018543713667895645, 0.00025651889154687524, 0.00027336564380675554, 0.00019034813158214092, 0.00021464466408360749, 0.00021024692978244275, 0.00025221030227839947, 0.00026606157189235091, 0.00021413713693618774, 0.00023194575624074787, 0.00022591718879994005, 0.00023325280926655978, 0.00022969415294937789, 0.00020201396546326578, 0.00019132882880512625, 0.0001722251035971567, 0.00031557469628751278, 0.00015658857591915876, 0.00016481392958667129, 0.00017586047761142254, 0.00025595002807676792, 0.00027097051497548819, } };
const TfArray<102, int> quant7_zero = { 102, { 0,0,0,0,0,0,0,0,0,0,0,0,0,0,0,0,0,0,0,0,0,0,0,0,0,0,0,0,0,0,0,0,0,0,0,0,0,0,0,0,0,0,0,0,0,0,0,0,0,0,0,0,0,0,0,0,0,0,0,0,0,0,0,0,0,0,0,0,0,0,0,0,0,0,0,0,0,0,0,0,0,0,0,0,0,0,0,0,0,0,0,0,0,0,0,0,0,0,0,0,0,0 } };
const TfLiteAffineQuantization quant7 = { (TfLiteFloatArray*)&quant7_scale, (TfLiteIntArray*)&quant7_zero, 0 };
const MODEL_SECTION(EI_MODEL_SECTION) ALIGN(16) int8_t tensor_data8[102*1*1*102] = { 
  /* [0][0][][] */ -43,-13,-62,-14,-16,-21,31,-53,-7,-5,-51,16,17,34,61,57,1,4,63,54,51,36,37,55,44,14,15,-14,64,-14,-44,-20,23,37,24,-12,-29,-74,23,-60,-58,-67,-20,-22,-36,-21,-88,-20,13,-40,-30,77,-3,-13,-44,60,72,49,42,18,-6,27,8,-36,51,34,-56,-23,-32,-74,-57,78,-9,-7,19,-48,-21,78,-10,41,-127,37,-73,6,50,18,-38,-10,0,-27,71,8,28,-4,-96,33,73,12,-11,-21,-18,-59, 
  /* [1][0][][] */ -16,36,38,16,6,33,-42,57,-5,-3,-66,36,-48,-25,39,8,-51,24,30,-14,38,2,-44,31,-74,4,-65,-12,0,-1,21,1,-61,-1,-113,-74,23,11,55,83,-66,107,2,73,35,-57,-34,-31,54,-29,11,-104,-12,-69,-15,-9,60,7,-56,22,-22,0,-24,-43,45,-25,-26,2,-20,52,-72,94,12,-11,-13,-33,42,19,-39,41,-80,8,-127,-4,29,-34,-20,-54,102,-25,-16,-11,-20,28,-1,-33,-74,-67,-19,-36,43,-35, 
  /* [2][0][][] */ 37,4,16,61,78,-33,-33,-105,-127,4,59,30,14,-1,-7,-14,82,28,30,-25,-25,-38,46,-20,82,-3,66,-62,-42,10,-13,-15,-25,23,-60,52,10,-99,-7,-34,-1,-75,-74,-8,-16,35,62,40,-33,-55,-26,17,26,-46,50,-5,-13,-13,24,47,21,-7,26,-35,-47,100,6,55,7,82,60,-43,47,-11,-40,15,-10,3,100,47,-28,30,80,0,4,-25,40,-8,0,59,70,-3,42,9,-23,8,36,-2,0,-16,-94,5, 
  /* [3][0][][] */ 5,58,-69,-1,-42,-45,-6,-38,-16,-38,-7,-65,6,13,-33,50,85,44,9,-4,-52,15,-9,-80,78,-6,11,-76,-127,56,43,37,37,-30,-13,15,2,-49,-57,-6,11,8,-45,-69,-58,15,85,-74,35,26,45,-29,-97,39,-16,-98,-12,4,0,53,64,-3,15,11,51,31,-7,-15,26,44,-64,-33,9,-36,1,28,5,-79,-94,-49,29,-102,-27,78,-39,-45,-34,12,-70,-10,41,-39,-92,-33,0,50,-20,-51,-9,-82,-56,34, 
  /* [4][0][][] */ 20,3,19,8,-10,-104,-70,-59,-104,-24,-57,-58,42,15,-26,-83,-24,-13,-25,-63,-108,-47,-13,32,-58,60,-7,-11,-86,-29,-127,42,48,-13,-31,6,12,-28,-79,-19,1,0,67,59,73,-17,-49,81,32,-42,-38,16,15,-91,-52,-37,49,-89,7,23,-71,-55,25,-18,-28,66,-1,40,-9,2,8,-28,32,44,39,42,17,5,-16,76,1,24,-18,-13,-59,-42,39,-32,-119,-11,15,-39,17,3,32,10,-6,5,48,35,-66,-6, 
  /* [5][0][][] */ -28,-10,0,-77,-91,34,-31,-39,-43,46,9,21,78,-45,14,-8,-33,-25,1,11,-13,30,39,-73,127,-6,-75,32,-78,-25,88,-26,-40,-56,81,-36,-68,53,91,35,-63,16,-43,12,-2,33,-30,6,-26,-36,70,57,29,4,4,-55,-52,8,89,-33,-30,68,37,-82,8,15,-16,-23,30,-32,-39,-41,-4,-78,-39,-40,9,-93,-25,5,-4,5,35,40,6,-26,20,4,8,-6,81,23,-11,-12,39,35,14,-54,-18,1,31,-45, 
  /* [6][0][][] */ 49,-30,-33,0,-53,20,-25,4,38,-48,-12,6,-40,-88,-53,80,88,29,-95,-38,-26,63,-13,75,-22,-40,-79,32,-59,-11,-25,-75,-61,39,-51,28,9,-13,52,-41,52,42,-96,-9,-23,-7,-41,6,-17,-20,27,-51,-29,53,-22,-62,-13,0,43,72,-78,-9,24,-35,-47,-25,-77,-34,-95,15,-11,-12,70,27,29,-39,51,-9,-26,66,33,-1,43,-32,20,34,-31,-45,-30,-30,-35,1,-84,-33,127,-38,-14,-23,-21,64,58,-40, 
  /* [7][0][][] */ -2,20,-10,74,-15,-9,20,-75,21,5,-4,34,23,-56,-16,-18,25,29,-24,-52,-2,1,-8,-17,-11,22,108,15,10,0,15,80,26,-77,-62,-56,1,5,-18,-1,-96,18,-57,7,-19,-9,-127,-13,9,-28,-43,43,87,-17,-110,-4,14,10,4,-62,56,6,-23,-31,26,62,-24,6,2,40,-28,-41,57,28,-69,46,13,18,33,23,16,-5,17,-53,-15,48,-47,-106,-21,3,-11,-6,75,28,-4,31,-5,14,24,-28,6,-21, 
  /* [8][0][][] */ -12,28,96,-31,-9,-35,-82,3,10,33,29,77,-26,41,-8,-61,-39,-31,-68,-16,-35,0,41,-51,-97,-20,-34,-73,21,25,14,76,-24,-25,-25,-6,19,-49,23,59,19,-36,-34,16,7,56,42,-89,-7,-4,-16,114,51,-50,16,-98,-52,31,-86,55,3,58,31,49,-108,-13,-13,-24,4,28,-7,-3,0,30,14,-84,7,-11,59,-34,-67,-4,-27,-127,-50,-82,-63,-12,-127,-42,104,-49,-106,66,-4,27,-31,-7,-118,-49,87,-51, 
  /* [9][0][][] */ -39,-32,18,-42,39,31,-32,32,75,55,-30,1,36,-98,-68,-88,17,109,21,-22,-67,11,9,-73,21,-83,53,-39,95,-2,44,2,54,-15,13,-40,-2,-34,-11,11,-62,72,-13,-105,54,8,-93,15,3,-118,-24,-42,-59,31,-5,-3,-88,70,31,127,-25,56,4,-52,-30,8,64,34,-7,-21,-8,-51,40,17,-1,21,-10,10,0,58,-29,-44,-66,7,114,87,122,66,4,40,-29,-18,-81,-94,-100,15,-33,-52,-97,-110,-36,-49, 
  /* [10][0][][] */ 60,-32,-43,48,19,40,40,-52,56,32,-41,-14,-5,12,30,-2,-32,24,2,7,2,36,44,104,72,-66,18,55,46,51,-46,21,16,60,22,-14,38,-78,69,-26,13,-45,-78,-66,25,47,45,-50,31,-48,66,-38,127,-4,14,21,-43,28,-65,-19,-3,-11,-26,-12,67,-17,-8,-22,53,-33,-12,33,-37,-20,41,47,-33,49,-51,-85,-46,-54,43,-58,12,60,29,26,-2,49,4,70,10,20,71,-29,-25,63,31,34,-28,55, 
  /* [11][0][][] */ 76,-51,11,75,22,-34,6,-26,21,15,23,-10,8,19,66,-36,45,7,36,-65,-118,24,39,-56,-21,-20,15,-32,35,-20,-9,2,-50,3,-24,9,-15,-71,-13,7,-14,-25,-24,3,-33,47,-18,-21,32,-6,-38,-37,10,12,-32,2,-22,-6,24,-62,22,10,32,-42,51,23,-14,20,3,33,-47,-18,21,29,-1,54,20,14,-1,-52,-29,-55,17,6,-12,-11,-26,2,7,4,39,-51,35,-5,9,-6,78,-10,73,-42,-127,-31, 
  /* [12][0][][] */ -89,-77,-89,2,-16,-9,-11,-85,-22,72,-39,94,20,31,-15,0,-84,80,34,-24,-25,32,-26,-14,57,15,16,54,-25,58,-12,38,86,-32,-19,-5,-78,-68,1,89,-53,-1,35,31,-18,1,6,38,8,-26,-76,-127,-12,25,65,-55,-7,39,15,-41,124,-71,3,-57,-6,82,85,7,-44,9,45,-62,103,-46,-84,-77,25,3,69,21,-84,-120,56,-46,24,-57,-46,-75,21,-10,-15,49,-22,81,5,46,12,-40,-18,32,-32,-65, 
  /* [13][0][][] */ -41,-4,5,-35,-18,-30,-40,-44,-92,14,-44,5,-21,-12,-7,6,90,31,-61,-14,-12,48,37,37,-27,0,-28,89,47,71,15,26,-31,-3,50,48,-4,-35,14,46,0,1,-30,-35,24,30,-42,-15,48,-47,-61,13,-63,-66,-7,-75,69,-51,-21,-30,-66,6,32,33,32,38,65,-5,-22,-61,22,1,-17,4,4,-37,-108,-26,-127,53,-18,37,18,25,-95,-27,-3,31,-14,5,-57,15,-75,32,13,-28,-21,16,-18,-78,29,-51, 
  /* [14][0][][] */ -27,20,15,-5,-24,-7,67,-55,23,38,14,22,99,2,-16,24,28,38,-10,-97,-127,44,-3,-62,33,-21,-52,-7,-43,87,74,43,80,61,-16,-8,-24,-59,13,-4,-2,39,81,14,30,47,-19,26,-36,-37,54,-40,-8,-51,-26,42,4,61,50,-11,15,80,8,-32,9,-44,4,25,-51,87,5,15,22,-4,-28,-6,9,-21,8,2,40,22,42,-21,42,11,17,8,-9,-3,-32,-12,-47,-19,12,26,12,23,14,-22,6,54, 
  /* [15][0][][] */ 56,-53,3,24,-43,-12,9,-7,-16,40,-9,-21,-39,-59,16,7,127,73,57,-24,-91,-9,7,28,44,-28,-46,-39,56,-59,-5,39,-8,30,-108,-24,-42,-74,33,-10,-24,-5,-6,-24,-21,56,13,43,19,0,-33,13,67,66,-38,-60,4,-38,-4,-49,90,-35,20,-32,44,30,-1,-6,-23,23,-22,-3,5,-11,-8,38,66,-5,-10,41,-1,-5,-5,5,75,-10,41,11,-25,-65,-25,-27,-4,-93,-28,11,-69,-20,-17,-65,107,33, 
  /* [16][0][][] */ -31,-22,-36,47,61,-8,43,-104,-8,-23,-76,25,-2,-6,13,-54,-94,32,35,-12,-121,26,-3,45,1,41,-3,-34,-59,-67,-37,27,45,-18,19,12,47,-39,50,31,-1,-44,12,-43,16,82,56,47,-11,116,80,127,-49,45,28,-17,-29,-32,-13,-20,8,-6,-31,-27,-77,24,4,52,62,-29,32,-49,51,33,51,57,1,20,-38,15,38,0,-3,16,4,-84,18,46,2,-43,8,31,-7,-2,-86,28,30,32,60,39,-77,-56, 
  /* [17][0][][] */ -51,-2,44,5,-127,-63,-22,22,-29,-26,-65,-42,-27,37,-6,0,25,-20,-33,32,31,23,-53,-81,-25,-2,-7,-11,2,30,-3,-3,68,22,3,39,22,-35,49,-63,-51,14,40,-2,-9,3,-35,-39,-11,-23,53,-31,14,-43,9,-12,-29,-45,25,47,15,20,10,-28,-43,17,-13,-18,-47,44,10,12,39,-25,12,33,-12,28,-24,4,-21,-30,-26,-57,-15,-82,-45,15,-38,-10,16,23,-38,31,19,-2,16,-17,31,11,6,61, 
  /* [18][0][][] */ 26,71,-59,-12,15,-43,45,-88,63,-12,24,22,57,-15,-12,-11,61,-18,51,-41,-55,14,-1,-45,60,35,11,-8,20,11,-44,66,-35,49,56,-35,-81,-29,-33,-27,-52,-72,-16,-59,-40,-6,35,22,-65,-59,-43,127,23,1,-37,-103,-48,-28,80,-2,-68,6,-38,27,-70,8,14,33,-58,13,-28,-35,31,33,-72,25,-22,-22,-66,-6,-10,50,4,-14,6,-15,-37,-47,-43,-12,18,-25,-12,-20,3,8,9,45,16,-37,-37,-20, 
  /* [19][0][][] */ 21,-25,-1,18,34,30,91,-54,33,54,-47,-50,-33,-20,-68,-19,76,-41,63,30,0,54,-15,16,-12,43,-47,44,-22,97,-41,53,23,8,-38,-14,37,-36,-89,81,-56,7,-32,27,-15,1,-11,-62,40,25,-24,12,5,-2,29,-47,-34,-37,43,-101,-71,59,-45,-15,-49,-14,9,42,13,55,-32,-87,70,-86,-29,127,-24,-4,101,74,17,-8,-33,33,-52,-16,-57,-4,30,-17,-90,-49,45,-8,37,-89,15,36,40,-18,-73,-14, 
  /* [20][0][][] */ -10,-48,54,-38,29,-3,58,-42,33,-40,-11,-10,15,-62,-3,9,107,63,61,-24,9,105,80,-44,18,-23,29,24,11,-68,21,3,49,-4,-39,30,9,-4,10,20,-21,-30,-61,-77,-69,-8,-48,-104,53,-28,-38,-66,-66,63,-61,42,-8,0,-2,38,55,-6,27,-98,-50,-46,51,-27,-21,34,7,8,20,19,-48,-15,46,-3,-35,-10,-22,15,-12,-75,127,-55,8,38,24,34,75,-73,-5,-28,5,-44,-12,18,-12,65,-16,-19, 
  /* [21][0][][] */ 32,73,27,44,-15,63,13,30,127,31,-14,13,-12,49,45,-1,61,-42,39,-65,-20,49,29,-17,-82,-54,15,-25,30,-46,-18,24,-3,17,-41,51,-21,-26,98,-60,-29,36,21,31,42,3,25,-82,-10,-68,44,-43,31,14,31,-89,25,-32,-49,11,-47,29,37,6,5,61,-3,7,-8,58,30,54,-89,27,-72,6,-71,-78,14,30,-81,-10,-52,-65,16,3,-1,-56,-9,-71,-66,8,-24,7,48,-127,-57,31,-38,-34,-5,52, 
  /* [22][0][][] */ 74,-1,44,21,20,7,-83,-17,64,47,16,-29,35,-47,68,-63,-55,88,5,-70,-54,69,75,-22,39,-124,-2,-63,-76,-3,-48,64,-127,17,-119,15,-19,-63,-15,-21,-42,-15,-66,53,-34,34,-58,0,-35,-23,104,-74,4,15,25,-72,16,25,40,9,-5,-73,3,4,-76,18,-9,-21,-7,-7,103,11,31,8,-49,-19,12,-29,20,36,28,54,55,-53,-65,52,11,-67,15,101,-2,-57,-64,-73,17,-5,-58,-52,118,6,55,-36, 
  /* [23][0][][] */ 21,5,33,55,-23,-29,33,-10,24,20,23,46,-29,-3,-7,-11,3,-3,-80,-36,-35,39,-6,-34,62,-17,31,34,-25,-14,15,-14,-86,-6,-8,-17,-37,-40,27,-21,-52,29,-40,33,-22,9,-59,-13,47,-63,-6,-47,15,-19,13,-68,43,30,0,19,-21,-127,-53,18,109,86,13,2,11,-18,-5,-32,20,11,1,-23,15,37,-88,5,1,-22,-60,14,-3,5,-21,-56,15,58,24,30,-15,-11,-29,-2,25,28,-21,12,23,-58, 
  /* [24][0][][] */ 50,60,46,-3,58,55,79,-54,23,-36,25,-79,-40,24,95,-1,-1,25,60,31,43,42,87,18,-70,-77,-70,-6,-65,-53,-82,24,38,-35,-21,46,90,-24,-8,45,30,10,-65,35,-12,34,23,-90,-27,26,55,2,54,-42,-69,-18,-44,11,8,61,-50,-13,41,66,33,-12,-44,19,0,25,11,127,-18,-47,-40,69,16,28,-4,-49,1,4,19,-9,-46,-11,-48,3,16,29,11,7,-39,-39,-21,39,19,22,85,-71,-13,19, 
  /* [25][0][][] */ -56,-25,-43,20,-127,-65,37,-71,-42,31,10,-49,61,13,-6,-58,-41,-32,82,-21,-98,-4,-41,-37,-4,-19,26,-64,85,-37,55,29,-11,6,-65,-5,4,-84,0,-30,-85,-14,28,-11,83,43,-13,-29,-48,25,33,-14,-6,21,62,-52,82,-12,116,37,-76,-67,16,-65,-15,13,73,9,-36,33,-35,-81,-17,-59,-106,-37,-11,104,0,7,-46,68,-37,4,60,-13,47,-51,28,61,12,-70,1,-18,-8,-7,-17,5,40,-32,-49,7, 
  /* [26][0][][] */ 1,-39,-64,8,-37,-8,-7,9,29,-9,-2,14,16,60,-14,-16,26,-20,-35,-47,-4,-7,-42,-37,-3,-77,15,-1,10,31,4,-26,44,-5,80,16,-58,-22,-4,-7,-17,70,-68,56,7,101,-52,-73,-102,34,-18,10,55,-16,13,-13,50,15,72,-30,9,28,-5,-20,-38,13,10,-11,43,-29,-54,23,2,-9,-89,-64,-7,-36,-14,20,31,-22,3,-96,36,-37,-27,-86,-24,18,-58,79,127,34,-12,37,-8,70,7,-59,-17,-12, 
  /* [27][0][][] */ 3,-50,21,42,-6,22,45,24,127,-47,44,-50,-13,37,-20,4,-24,-23,62,-47,54,36,-26,27,-79,-30,-22,70,14,96,-36,-24,-65,7,110,21,12,12,36,74,5,88,17,-107,-41,-8,-62,9,45,-31,-87,19,-11,-30,-24,16,-16,3,19,51,-118,-4,7,91,-49,53,-85,-7,-10,122,8,20,-9,77,7,-56,23,19,-38,96,12,55,-12,-81,61,-25,-25,-83,23,-1,-27,8,102,99,-97,-26,16,-87,-110,-10,47,-61, 
  /* [28][0][][] */ -15,24,0,-48,-39,14,-60,25,-20,-21,11,15,-5,21,-30,-5,-19,40,-5,-42,-67,23,46,-12,-10,-15,15,13,-47,-12,25,-51,-12,-17,26,-33,19,-102,-55,-16,11,-4,-38,-61,-44,-127,1,70,50,44,-35,-81,9,-67,0,-42,-7,18,71,-26,-29,49,-16,-54,-13,-20,67,-8,15,26,-38,3,57,-27,-2,26,26,-21,3,-10,42,-33,56,-72,55,-5,-14,-90,62,30,-28,1,-55,-56,31,-27,-13,-41,26,-11,-16,-63, 
  /* [29][0][][] */ 45,31,-19,-8,-63,-41,1,-33,12,-10,-5,-41,9,40,-7,31,31,-70,-20,35,25,-36,55,-97,7,-30,5,-48,-3,-55,16,47,-10,28,-38,25,26,56,30,24,-43,-24,68,-56,-4,8,23,-3,-31,-33,-19,-19,-127,-24,-68,4,-72,7,-5,7,25,-27,18,62,-17,-28,4,-49,33,-24,6,15,29,13,-40,34,-15,76,-14,36,-18,75,-13,10,44,-18,5,36,-23,61,-7,42,-22,36,38,51,47,-14,26,-86,-30,-40, 
  /* [30][0][][] */ -22,-47,-15,5,15,3,-18,-57,-80,4,65,8,-15,19,6,4,27,35,-106,29,-46,-2,44,61,36,-35,-3,25,-35,15,14,-47,50,24,16,29,27,-3,-12,-45,16,-11,-71,-55,27,-2,4,-15,-3,49,-7,5,-33,7,-4,-29,9,22,9,-18,-24,-23,3,-6,14,5,35,-18,28,-2,78,-25,6,15,38,-58,55,66,7,16,-35,33,-11,-37,-2,0,7,7,-127,39,24,11,54,1,7,-35,1,2,-72,4,-32,17, 
  /* [31][0][][] */ 35,0,20,42,53,100,58,-82,-2,25,-25,104,22,-16,-42,15,-19,53,98,-123,-87,18,7,26,-21,-14,-18,71,45,-47,82,-51,63,-89,51,-21,-74,-51,72,25,-19,-16,-13,-3,-30,-27,-30,12,19,-126,26,-21,1,64,-15,-43,-42,23,55,-43,-11,33,-54,49,61,-15,-2,-14,0,31,1,2,-25,34,-70,47,-77,-7,-78,14,-95,12,4,75,-22,34,-1,-127,28,-32,-49,-31,-1,17,-45,-34,71,-25,-21,-5,-2,-9, 
  /* [32][0][][] */ 38,44,-1,-49,5,5,9,2,-9,-30,2,-43,26,-69,-28,-17,-18,64,-13,-7,-22,-46,-21,-43,28,-9,-15,47,-40,48,16,-45,-9,-12,16,57,13,-7,-41,-127,44,-16,-9,37,10,-37,27,38,-17,-18,-4,-2,-21,-33,-32,-26,-13,26,17,32,-80,41,17,36,-20,-15,-12,-15,-64,17,-32,63,5,12,-17,-39,2,62,59,69,-62,-44,-7,8,-20,-32,-44,-63,46,55,-12,-43,-16,10,47,10,20,15,7,-36,-28,-22, 
  /* [33][0][][] */ 5,61,-8,-127,-28,72,69,-37,-8,52,-116,52,65,-66,-11,-78,29,36,58,-38,39,-23,-13,-12,-95,-42,73,122,-76,54,1,54,-76,-33,-3,10,-7,-5,60,-85,-34,-63,17,-70,16,-96,-15,10,-69,43,88,-85,-37,20,-14,-26,-72,14,-26,-37,-27,-89,41,-20,56,-15,52,-55,-8,-52,62,59,4,22,-2,-46,-21,88,-51,-33,-57,-29,-12,50,49,-32,-24,-94,3,-32,-41,46,-17,87,-14,-96,36,-40,-79,-42,43,-23, 
  /* [34][0][][] */ 0,13,-7,15,-13,34,27,8,-8,-8,15,-51,7,74,19,56,85,20,29,-25,-58,89,9,-49,-24,-17,-53,-59,-105,-66,32,11,-7,-52,-40,15,-108,-36,-20,-2,-78,2,-70,-16,-3,-12,-113,-75,58,-54,-3,3,21,3,5,-37,0,20,-16,-60,-11,36,-7,-28,65,17,-1,-34,-23,11,7,20,2,-3,-8,16,19,-36,30,-15,41,-127,-50,-16,-4,26,-29,-23,65,2,-105,1,-32,6,3,26,-42,33,23,-14,37,40, 
  /* [35][0][][] */ 24,35,-8,24,-2,-3,-9,7,-7,6,9,-31,-16,-9,24,-1,34,36,-16,-38,-35,-42,-5,5,-42,8,9,119,-6,-14,-11,-52,-6,17,-30,1,13,30,-17,23,-24,-16,1,0,12,-14,2,21,44,-22,36,7,-9,4,-2,-12,-13,21,-16,3,12,6,-7,9,-35,2,6,127,7,6,9,6,21,5,13,7,-8,1,3,14,-21,30,-7,-21,2,17,12,21,-2,49,-5,14,-8,14,-7,-5,-26,4,-38,-16,15,-30, 
  /* [36][0][][] */ 58,-23,16,25,-48,22,85,-91,69,-14,-15,-47,10,-90,74,43,55,94,32,-2,-49,20,54,-73,-37,106,57,-9,74,-116,-54,18,-61,38,37,-46,47,101,-8,-60,-33,14,-48,-78,-9,70,48,-126,24,-71,-3,47,22,-13,-77,40,40,30,31,-35,-42,50,-103,-4,-64,32,-22,21,-16,8,70,45,12,-2,-54,67,38,-86,-123,-70,93,17,7,91,20,-25,66,-11,58,37,-127,52,36,12,-15,36,17,-87,-90,-59,-38,77, 
  /* [37][0][][] */ -9,-45,-4,32,-24,21,-55,-20,-35,38,-16,24,-45,-22,-26,-27,39,-80,-24,42,22,5,-16,22,-91,-67,-84,-42,-84,-60,67,-22,17,-48,-36,-4,-6,1,-14,17,67,-54,69,-22,34,-104,-86,-67,88,-127,-58,-36,26,-47,-26,-13,18,-5,33,-19,-6,-112,53,9,-34,-13,15,-10,-11,-21,54,7,-15,14,-37,18,46,4,-53,119,8,18,-3,-52,82,-19,-46,-10,4,17,26,1,75,-74,-4,-16,1,-85,-19,-104,-11,-19, 
  /* [38][0][][] */ -83,60,-6,44,-65,-89,-76,-55,-127,-8,-51,9,-33,56,-52,36,54,-14,-12,-11,-51,-29,84,-48,34,59,-1,65,27,-58,5,5,21,-27,12,-50,-40,-25,-34,91,-26,-51,37,3,-20,11,16,35,66,-68,-71,53,34,-50,25,-7,20,-58,108,17,15,45,-30,-70,55,66,53,42,71,-32,27,-47,59,45,-24,-29,72,52,-72,25,-12,-69,-17,-17,15,-51,-16,-51,20,-11,13,-57,31,-3,-66,105,-6,-61,-24,-54,-27,-9, 
  /* [39][0][][] */ 22,25,0,-23,19,64,6,44,127,30,-33,0,-1,-86,72,35,-53,23,34,-47,0,18,-15,-28,-6,-90,-32,-61,6,-14,33,52,-73,-20,-32,-79,-13,-11,-33,-60,-25,104,2,38,-38,-38,-77,-70,22,-51,45,-3,-7,81,-12,-10,10,12,-15,-8,4,39,-3,-3,11,-10,-6,20,-57,5,38,30,39,-20,38,-49,22,-24,6,7,18,-6,3,-21,-18,81,-46,-27,21,26,-2,-2,-23,-20,-15,-47,-9,15,30,-13,88,-4, 
  /* [40][0][][] */ -2,-71,-28,127,29,27,-59,-78,-47,-16,-28,-38,9,36,-23,62,-97,-5,96,-3,-60,-71,11,34,-9,25,-26,-35,-13,-11,-50,25,-47,16,-8,15,-38,-43,-10,24,-6,58,-72,24,-62,31,-38,42,25,-50,67,79,-28,81,-76,39,-27,-62,-59,92,22,-38,-76,18,-111,9,102,38,-32,80,33,-100,36,64,11,41,114,-95,89,-73,-82,-13,70,-28,79,-59,-37,-16,44,61,120,-57,-83,70,49,10,65,-13,64,-26,-50,50, 
  /* [41][0][][] */ 0,6,-38,-37,-107,-34,44,-23,31,-20,23,-26,35,-20,-54,-42,91,-45,48,51,-32,2,26,29,-32,-13,-43,-33,-19,21,39,-12,-14,36,43,9,-39,-22,-22,-62,-78,-4,71,-24,94,-75,-19,-21,15,-26,53,36,-35,-32,-2,5,62,59,54,67,64,37,39,34,-32,-14,-35,-27,-36,4,-2,-61,-6,-10,-50,-58,17,1,-68,16,-33,29,-105,-32,44,-5,35,9,-15,36,-45,-82,-21,-80,-6,-32,30,-41,-27,-36,127,16, 
  /* [42][0][][] */ -39,-16,-67,-33,-31,34,-18,2,-33,-16,-19,9,38,66,5,-36,73,82,5,5,-14,44,14,32,6,-2,46,56,-37,11,62,52,-17,124,-44,0,21,0,-5,2,-92,17,-127,12,9,12,-5,37,32,75,18,97,-20,-16,3,-16,-90,43,11,15,-3,48,-112,13,90,-26,-75,-9,-19,13,50,18,-63,31,-29,-9,-11,96,52,-16,25,18,47,19,-35,-17,0,19,-12,12,-43,-18,-1,-14,-33,-20,9,-24,-51,97,6,-2, 
  /* [43][0][][] */ 54,56,18,58,-21,-25,-11,-6,-30,-1,-41,-36,53,7,-9,35,-26,10,-56,-21,16,-43,-21,46,13,-45,44,-21,41,-38,-39,-91,12,6,-63,-11,4,-45,-57,-52,-25,39,-46,-13,-8,-48,-53,-61,-6,77,36,64,-22,19,127,27,-7,-16,-1,34,-32,-57,14,9,20,15,73,-25,-31,-18,-46,-28,27,13,58,-31,39,5,8,-8,-13,56,-36,-23,-27,1,4,0,-11,87,-24,36,28,-6,17,-25,71,56,0,-23,39,21, 
  /* [44][0][][] */ -25,-31,-7,-65,104,54,-22,-35,34,0,71,21,-3,-40,-80,21,55,-66,47,-51,82,20,105,-89,32,2,-13,-71,45,16,-47,69,-67,40,-10,36,57,-25,10,4,1,-50,-81,5,-40,-76,25,28,23,-37,-4,-67,23,-3,34,5,-34,27,-81,79,44,61,-63,33,59,-23,-39,-14,-36,-60,77,-72,-26,-10,-25,-10,26,-127,-84,0,-69,-16,36,-43,2,44,-1,70,47,-44,21,62,-62,31,-19,-30,14,-32,-7,-61,21,-11, 
  /* [45][0][][] */ -12,11,-11,59,-32,38,55,-4,80,13,42,12,7,-86,-18,-12,6,18,-30,-67,-86,-5,-9,53,-4,-1,21,-94,98,-48,-59,100,43,4,-116,-97,-125,22,35,-32,-64,106,-69,48,-12,62,9,11,-12,87,-4,0,25,-81,7,-13,71,-34,127,57,63,29,-79,-10,3,15,-11,36,-36,-5,7,-48,58,43,-51,-69,-10,37,-3,-15,41,-21,13,-53,-24,17,57,-75,102,-6,16,24,52,-117,5,-15,0,53,0,125,-106,-17, 
  /* [46][0][][] */ -29,3,27,-25,-32,-5,28,-47,32,35,7,-22,-15,-12,11,-8,13,32,33,-3,15,10,14,-9,-3,30,-4,13,-16,-1,6,24,15,-21,5,2,-42,19,11,27,-14,9,10,0,12,0,-32,2,32,-57,30,29,-5,39,-8,-13,-24,15,2,-19,-21,-20,-28,-10,-9,29,-6,-25,-2,-59,6,6,13,4,-14,-7,-7,19,-127,48,-8,-31,-16,-27,-7,-16,2,-10,5,-25,-55,34,-11,-14,12,24,-12,-23,-16,-21,23,3, 
  /* [47][0][][] */ 67,41,1,-16,14,-12,-39,52,34,29,84,-13,-15,-29,50,-29,49,-57,-124,88,-54,-87,-30,-3,36,-41,44,-41,118,37,112,2,17,-74,22,-126,28,-58,48,-5,-51,-35,16,126,-19,12,-40,-127,-22,51,-56,-57,15,26,-18,57,19,0,44,44,31,-9,32,-62,37,88,34,2,-40,-20,-43,-60,-8,27,-32,30,55,-41,-50,6,-74,27,60,60,-39,85,8,10,102,-1,-22,8,45,-71,10,104,-34,-76,16,-1,-27,-29, 
  /* [48][0][][] */ -20,-26,-23,48,64,29,-64,58,-8,91,29,-59,-30,48,115,48,-46,-53,104,-11,64,-40,76,-21,-3,-48,-54,-117,26,-112,-31,75,-86,29,28,13,23,-1,16,57,-6,-72,2,41,-50,-51,-13,-55,-15,108,9,-15,-35,103,-13,12,-22,99,-30,-12,4,31,38,35,47,47,-10,-18,48,-74,71,31,-66,10,29,30,69,18,37,37,-20,16,-34,-54,-64,127,-35,72,82,-118,7,-53,-8,11,-46,36,-22,-102,68,-11,-42,-31, 
  /* [49][0][][] */ 82,3,66,-32,-46,48,17,-14,41,15,-49,-41,-3,-50,63,6,-15,27,12,-79,49,58,12,-51,6,-50,25,-21,22,6,25,-28,-121,-29,-1,65,-13,-78,64,-78,45,-64,-4,-31,5,-60,-32,13,23,-59,-10,31,59,27,10,-8,-28,24,-6,40,18,-11,-14,56,46,-50,-16,-3,-127,-13,22,3,8,-26,6,-26,-17,-15,32,44,25,43,8,-20,27,14,41,-79,39,73,-94,-1,18,-86,-12,-33,-17,1,18,-64,-42,10, 
  /* [50][0][][] */ 24,44,-58,-28,-4,20,-13,-35,36,-23,-41,7,10,-38,-9,-4,57,12,58,-44,-30,-13,25,-34,0,-22,40,2,-29,-62,55,45,22,1,32,13,-1,14,-47,-25,-53,-7,52,0,-49,15,5,23,10,-57,22,-31,-6,-7,-33,13,-34,-17,33,-25,16,127,26,21,21,0,-11,18,-7,120,-9,11,35,15,-12,-2,60,-9,-8,47,10,28,4,-9,-50,-2,24,-10,-28,9,-26,68,20,-21,-19,58,-18,-12,7,-24,-2,28, 
  /* [51][0][][] */ 19,-7,27,-1,-41,3,14,-56,46,-11,-57,20,-39,-28,-13,-53,19,28,27,127,-93,-9,-3,-26,-68,57,15,-26,-45,-40,65,-3,40,-4,-56,-48,-7,-33,18,32,-52,60,-82,50,4,56,-25,-71,3,10,41,-70,-26,2,9,-84,-55,19,-29,-24,30,-25,-32,11,29,47,-23,2,28,-60,-28,21,82,83,5,-33,-85,-35,-92,73,5,-41,37,24,-54,-18,-19,-65,-32,37,39,40,-64,37,27,69,-99,-41,-34,-70,-22,48, 
  /* [52][0][][] */ -46,-74,32,11,62,31,-55,-101,-28,77,-37,97,-7,0,101,4,23,-23,20,65,-8,60,45,0,46,-42,-69,-35,44,18,-2,-108,34,47,-90,-10,-1,-47,-2,8,-24,8,-111,8,11,-56,-7,-116,101,-34,48,82,14,18,-22,-33,39,19,-33,49,58,97,-50,-45,36,91,68,-34,6,-48,78,-16,21,29,3,-104,47,20,85,-32,-100,-30,48,-16,-49,-10,-31,-127,45,-70,-19,71,-84,7,-81,65,30,-11,2,-90,-44,-48, 
  /* [53][0][][] */ -13,-17,-36,21,-25,26,20,85,47,-26,63,-40,11,-47,30,29,25,88,-34,74,-24,7,76,-48,-52,-41,18,-8,34,-101,41,-10,-15,44,-40,20,-55,4,38,0,-63,-7,57,22,-25,39,7,-76,-32,29,50,11,-34,37,8,3,35,6,-35,15,-7,-1,-28,-44,0,-19,37,127,0,30,35,-53,-2,-4,11,-45,54,30,5,21,22,-7,44,24,60,27,-30,1,-4,27,4,-14,-63,26,-6,-27,-13,-17,15,3,18,72, 
  /* [54][0][][] */ -20,2,32,15,3,25,61,-35,-12,22,-3,-39,-22,53,36,-39,-5,-32,-5,-17,52,-23,30,53,77,-16,70,8,62,-40,-20,-9,16,-86,15,55,19,30,55,71,-45,69,-21,-27,118,127,29,62,29,-50,3,31,33,-30,-100,27,38,16,-19,-8,-47,74,-59,-28,-74,62,0,-34,-21,40,-24,16,-6,-82,14,-46,24,10,-71,-5,-39,101,47,-121,1,-35,0,25,106,-4,-85,-5,-52,-32,8,29,-9,-41,19,26,-34,12, 
  /* [55][0][][] */ 27,-18,-39,-72,-20,-33,29,-24,16,22,41,127,23,47,13,23,21,57,46,-46,-57,3,9,-6,7,21,-3,27,-35,42,-26,13,-27,-34,42,-21,-66,-32,-26,-24,-80,33,-43,8,-48,-34,3,-8,18,19,27,22,-20,6,0,-44,24,-17,84,-35,-45,-14,20,-50,25,23,-24,-23,17,-14,29,5,38,20,-29,42,-2,30,-37,-47,-4,40,27,-37,-3,-37,-1,-50,-4,-54,10,2,38,3,33,27,73,29,28,-20,9,-39, 
  /* [56][0][][] */ -8,39,60,60,9,38,-18,-73,7,-17,-87,-35,-21,-7,-6,45,23,-1,-35,23,-47,47,-11,39,28,-37,17,-108,48,38,77,-3,30,49,-127,-20,16,-12,83,-61,-22,15,-68,8,9,-24,14,50,1,37,20,55,11,-1,-8,-19,-21,-30,38,-66,-20,73,106,-100,-15,70,41,-17,26,-49,-63,-32,-65,-36,-37,-122,65,-7,-93,99,-122,-37,-69,35,-9,59,-29,11,-9,88,-71,-1,-22,-2,-44,26,-5,-45,-78,-55,-56,24, 
  /* [57][0][][] */ 27,18,-53,-9,30,11,33,1,-12,9,-56,10,-31,-40,17,8,57,-38,1,-9,77,18,-23,60,37,-37,59,5,87,-15,-40,-3,20,50,2,38,9,-10,-7,-40,21,46,-49,-81,4,26,5,-7,-5,40,34,-44,-11,-42,-8,20,23,89,14,119,-22,14,-9,9,-12,66,-26,30,8,5,43,-126,13,-45,24,1,5,-10,15,38,-7,-74,53,29,65,-24,1,-2,-127,-41,-28,-41,-6,-43,-6,-45,69,3,49,25,-54,-29, 
  /* [58][0][][] */ 19,32,13,31,-4,-18,-74,28,-3,-68,-18,-54,5,-127,18,50,64,-13,71,-16,-47,-42,69,4,-40,-2,50,12,36,-3,-19,-19,43,22,-40,2,-34,-12,-62,-18,29,54,-7,13,0,-76,-54,-36,23,1,36,0,23,-24,35,-19,-26,11,2,90,-15,62,14,64,55,45,-31,-45,-19,15,49,0,4,-49,-6,-51,-43,-25,-55,27,-22,-31,27,16,8,44,-100,-14,83,-4,-17,-68,-36,-29,-5,16,-47,89,-7,-49,11,48, 
  /* [59][0][][] */ -54,-3,58,45,12,-28,-36,-107,35,23,16,38,-16,-21,13,-112,-23,127,29,-16,-43,23,-12,-53,8,88,16,-32,-40,-40,12,41,84,-56,-119,-54,-105,-21,-15,124,-39,-37,-34,29,14,32,-62,-26,17,-126,0,29,14,-53,-51,-56,12,78,76,-3,25,-22,3,17,-48,17,2,14,52,20,-87,-34,37,-29,-63,15,-14,-35,36,16,-49,29,-62,-41,21,-13,-12,-60,38,36,-15,-74,-8,-16,-56,7,-85,-53,0,-15,-73,-21, 
  /* [60][0][][] */ -7,-49,19,5,45,77,-6,4,-25,-30,-60,-16,5,-94,4,37,56,-28,-1,7,-51,-57,127,-4,84,-47,-14,-42,-10,35,16,-38,-28,-26,23,-23,22,-7,-29,-44,-5,16,-79,-1,-2,0,12,-26,-10,34,4,30,-13,6,31,10,-9,-8,6,72,-20,24,-53,-4,28,-3,-17,54,-46,-27,-7,12,3,0,19,-25,60,-67,27,-27,-60,-63,-23,-34,64,-1,-11,-23,-29,-23,-39,-39,24,-57,-6,13,41,-16,53,32,-1,5, 
  /* [61][0][][] */ 4,25,71,-24,64,-15,-31,2,-58,-48,-48,-29,2,-18,32,72,14,11,16,23,23,4,45,0,46,-18,58,-30,47,127,-22,-4,-74,33,13,52,1,-25,-35,-30,-20,-5,-82,-39,-63,-6,10,19,56,-2,34,89,-42,47,-20,-69,-25,10,-48,59,5,-20,-22,-75,28,46,-49,-16,-8,15,117,-2,5,-5,44,49,-38,21,-38,37,-3,-9,21,32,-17,68,-27,26,-7,57,-43,6,-19,-27,46,-44,14,9,-48,-5,65,-108, 
  /* [62][0][][] */ 88,42,31,-2,68,108,53,7,-63,-28,-18,26,50,-4,-37,-25,30,-1,-24,18,-27,22,91,5,92,-48,82,-29,-95,-41,-36,46,-10,3,23,5,3,-65,21,-13,-46,-65,20,18,20,66,-40,65,31,-87,23,45,-59,-4,127,57,31,80,53,92,-25,-57,37,21,3,20,12,15,-56,27,-36,22,73,4,-56,8,34,20,-19,-41,-64,12,-32,-17,72,-36,7,-50,-46,-25,-22,7,-26,-46,60,21,25,8,-9,-22,-13,-29, 
  /* [63][0][][] */ -4,-10,-12,64,-80,43,38,-53,-72,-14,-27,-23,-40,119,84,20,73,-23,-78,-56,-23,26,56,11,74,-28,-11,-78,64,39,-22,15,-75,57,-21,-19,27,-27,-40,-26,-94,55,-9,-33,34,21,45,-1,84,85,23,-66,14,-20,-74,19,-43,-49,9,34,-89,53,-70,-51,22,74,30,-8,92,33,10,21,21,-3,4,100,113,-12,-60,1,-18,-104,-45,-3,127,-6,-49,24,-61,75,-41,3,-29,-82,59,-72,-66,104,3,-54,-38,-75, 
  /* [64][0][][] */ -66,-55,-73,49,25,-57,127,-126,64,-8,34,-22,-53,20,4,-29,38,-53,5,-77,-76,-60,70,-88,75,1,-96,32,-16,2,-35,16,-81,46,2,-15,-91,-42,-36,-28,-30,-20,-110,86,49,-37,-9,63,82,-37,-17,-9,31,95,-90,-29,-23,-33,26,59,-41,102,70,64,-12,15,-32,-31,42,120,33,-29,66,44,-1,-65,-2,-13,73,-19,-31,-48,1,36,110,-25,-82,29,19,10,-105,-5,-7,-5,-69,-6,-78,-28,38,-31,3,23, 
  /* [65][0][][] */ 50,-95,-72,22,-32,2,25,-59,110,94,-55,0,-15,17,22,13,-83,65,-22,-84,-73,-10,-114,-15,-16,-31,50,-47,13,10,15,16,51,41,13,-56,-75,-45,28,-38,-78,26,25,40,-15,-3,-53,-46,14,28,61,-68,76,14,-68,62,53,-54,7,4,6,64,-53,3,31,-53,44,27,8,93,-127,7,-4,15,8,63,23,56,16,22,-30,-8,-121,32,-2,15,-21,-33,-2,-13,-33,19,-8,-46,-25,-61,31,-30,94,20,30,-72, 
  /* [66][0][][] */ 16,0,43,-38,5,-15,-20,48,54,3,-29,32,30,-17,35,-90,-49,14,-38,67,14,-29,3,-10,-31,-52,29,-20,9,-75,-54,-55,-9,44,13,-2,16,2,9,-65,27,61,-14,-24,58,48,37,-20,25,16,-50,-37,-71,38,34,36,0,-60,-23,20,-69,11,-14,-2,-65,23,11,1,-47,3,-7,40,4,9,76,-59,41,-37,74,-45,16,-4,0,68,18,-97,125,1,-33,77,39,-66,103,-127,19,27,-3,40,52,-5,13,18, 
  /* [67][0][][] */ 76,-4,-54,1,-7,-24,71,-7,-11,-19,32,22,28,-58,-2,12,-63,-33,-9,-53,-3,20,26,-34,34,-19,-1,13,-10,-11,97,90,-58,-38,23,81,48,-18,10,1,-72,17,5,-11,18,-19,42,-1,3,-74,-13,55,-29,9,-18,-76,-70,-11,20,-22,5,8,3,-6,-8,-21,32,26,68,127,32,-39,6,38,-52,59,-40,-71,-6,17,65,-18,3,-21,37,-99,3,-65,10,57,-12,-7,-91,-38,49,-37,-67,51,71,5,17,17, 
  /* [68][0][][] */ -8,9,-45,65,79,46,-40,-55,-21,41,27,-60,17,66,12,-16,-16,-38,-12,-50,11,-8,30,46,-41,-44,-51,-34,16,11,-55,23,-14,50,14,-30,-70,12,-31,98,-11,38,-24,53,8,30,19,49,56,-26,59,127,28,-5,-30,13,13,-14,-5,19,33,-12,19,-5,-49,-10,7,17,-36,-10,64,-25,48,32,-25,31,-5,-29,-79,-60,-20,36,31,32,-9,52,26,-33,-20,-44,33,-57,54,-78,-24,-6,-23,-5,-23,-75,-43,17, 
  /* [69][0][][] */ 39,-15,40,24,5,58,-18,-6,73,115,-46,-23,-33,31,-4,-78,33,62,-37,1,-11,-29,1,67,12,15,35,-120,79,4,-4,66,1,-39,36,44,-68,-47,-40,-12,-3,127,-68,50,65,34,-11,-80,-2,59,19,-58,24,92,14,38,-38,-50,-60,87,21,21,-92,41,44,40,-68,74,-36,16,47,-62,40,20,-26,23,10,53,-64,-35,-41,-47,-62,33,-28,-64,38,-99,-38,-24,-90,72,5,-32,-16,-19,36,58,-18,24,-16,37, 
  /* [70][0][][] */ 2,-16,65,34,-57,7,-63,6,-8,-33,-27,-56,-13,-36,18,-127,61,5,-10,-17,1,-51,4,-21,63,14,-112,-25,-53,12,9,33,-35,13,-33,1,-34,-16,-18,26,-10,32,-53,47,-88,20,19,-42,-1,-7,15,-11,60,37,-27,3,-32,13,8,53,-6,-10,-29,0,10,35,80,13,-9,17,7,-4,23,73,22,-36,-17,18,-23,-48,-49,44,-14,16,-4,20,-2,-30,30,-14,-60,-101,-36,56,-17,-49,33,8,7,-16,-4,-1, 
  /* [71][0][][] */ -21,10,66,45,56,20,-5,0,-39,1,1,-9,-38,2,26,26,6,59,7,-86,33,1,47,32,74,-18,2,-14,0,49,41,19,-12,-3,-67,55,35,-46,-42,-24,-17,-18,-31,-6,-8,24,-1,-19,27,-32,18,28,14,72,18,32,-24,-1,-56,-36,-58,-16,-24,21,44,46,-16,0,44,-49,-14,-124,-42,12,52,13,31,-23,-12,-48,73,93,71,57,-42,29,-18,-70,-64,-28,7,-29,14,-78,127,44,83,29,-78,-9,14,24, 
  /* [72][0][][] */ -24,42,80,-65,102,-30,18,-13,-72,17,-16,-29,11,108,52,67,-12,55,6,-107,43,-38,18,-24,-6,-69,42,-92,29,-24,-26,47,-102,-96,-110,-73,8,-26,-92,-29,-72,-25,14,30,-23,-50,-58,-85,47,21,46,-75,64,-48,23,-12,90,58,-43,12,-96,17,2,35,-11,19,-47,15,21,-45,27,45,-30,-31,-44,-127,-4,-25,-83,21,21,10,54,-61,-1,-10,-77,-24,2,65,-4,-28,21,59,-40,-13,-31,-33,-111,-56,24,50, 
  /* [73][0][][] */ -12,-8,-56,51,26,-71,-83,-56,6,20,37,-4,-24,-16,14,-54,13,-34,-43,-110,46,127,26,-44,-16,-82,15,74,4,-1,-80,-13,-47,0,83,58,15,-71,-15,2,2,12,-23,-47,-8,-61,-89,-32,-39,-2,65,58,48,-35,18,-4,49,-40,-8,14,12,-82,7,-77,-45,41,-49,-33,-3,-2,-36,-30,110,126,27,27,-27,76,25,-19,-13,-35,14,58,-22,-57,-25,14,45,19,-60,21,47,-8,72,-58,-54,-7,13,17,-39,-28, 
  /* [74][0][][] */ -94,-52,-57,65,-4,-11,4,-69,33,-72,64,34,112,23,-34,49,-4,-13,22,-65,-87,-56,-41,-19,-4,52,65,-4,49,-42,60,-96,18,-1,-22,-33,-71,-14,71,-51,-118,-39,-7,-1,-51,47,23,-50,23,-57,-111,4,35,-48,-43,15,29,59,95,-55,62,5,-31,-74,47,12,-28,-42,23,15,-127,-9,3,52,-11,7,63,-57,-68,42,-46,-32,-66,5,31,-25,-21,11,19,-7,-14,-51,85,10,-25,97,29,-42,-43,18,-42,-50, 
  /* [75][0][][] */ -40,44,-28,30,25,83,2,18,45,-22,-39,32,18,-36,-2,23,8,29,-27,-65,54,-26,-25,-92,46,36,1,-52,-4,16,37,-12,-57,-41,-78,10,-96,19,19,23,-18,-32,31,-27,-33,-29,-30,44,77,-30,20,20,-32,10,3,-55,29,5,2,-14,-31,-127,7,-6,-10,-5,-18,-8,-3,-11,-9,9,21,-19,-24,28,-21,38,-65,52,40,12,6,-13,25,18,-7,-49,-24,40,-3,-47,-19,17,12,-39,-3,-2,-24,-99,-88,-7, 
  /* [76][0][][] */ 5,-16,1,43,-1,-9,91,-22,-30,-12,4,-34,-33,23,13,-18,-42,-31,-24,42,4,9,23,31,-5,-33,50,-8,-4,-44,-31,31,-22,-1,69,-25,12,-20,-24,-6,13,-1,6,49,-35,-45,-3,-29,127,23,-45,20,-52,23,-93,-5,26,-19,3,-35,-4,38,-29,-27,-66,-30,-3,30,32,11,22,29,28,50,15,-29,-11,-23,18,-25,29,12,-31,-8,7,-21,3,-4,26,-72,-52,-125,-8,-51,-48,7,18,-7,-4,-33,-5,14, 
  /* [77][0][][] */ 26,-40,-5,1,-20,-13,-53,-22,-4,106,-18,36,13,2,-20,-94,-14,-2,7,-14,-10,-41,-10,-15,8,-61,-21,-28,11,12,17,-7,-37,25,-102,-17,-84,-64,37,35,10,-54,-77,5,53,-28,37,-19,-45,-31,0,-9,27,-5,22,18,-10,-8,11,-2,-32,-98,-15,-52,42,-15,48,37,-5,-34,-23,-23,39,4,9,-30,9,1,20,-19,20,-10,-24,-29,72,-19,-10,17,17,9,-31,127,-21,33,4,-20,-21,12,3,9,35,44, 
  /* [78][0][][] */ -26,0,-70,71,-11,-72,-61,-33,12,-53,-20,-65,17,0,37,93,78,1,-23,-19,-58,22,16,8,-76,-39,-7,-8,3,59,44,-34,-38,17,-47,14,18,-90,-72,20,-36,3,-67,109,-22,29,-55,9,-24,0,34,-61,2,-50,-32,-38,71,6,38,22,46,-24,-61,41,-85,69,31,13,100,-18,76,31,31,-7,-11,-24,-17,73,-9,-127,-21,32,-8,-50,38,69,-30,-26,32,-6,-71,-8,43,16,-30,-6,-15,9,-31,-7,-21,55, 
  /* [79][0][][] */ -51,30,31,24,-25,-38,84,-108,87,8,74,25,90,-45,19,63,89,62,76,-87,-53,-36,-31,-23,7,-76,44,0,-61,-20,23,112,-127,-22,-25,36,-83,-42,122,0,-109,-7,11,24,-30,-40,0,-23,-109,-65,-68,-62,22,20,8,-17,49,39,111,-27,-14,12,-70,-71,30,15,-54,-16,-122,-49,-24,-43,32,44,-121,-27,-80,42,67,43,-8,-34,10,-41,-53,-54,22,-42,32,-103,11,59,-55,-18,-1,13,-61,54,34,57,-38,-74, 
  /* [80][0][][] */ 89,3,27,66,-27,-21,-39,0,-29,9,30,-69,43,-12,35,92,15,21,-34,11,32,43,82,-1,-42,-110,101,39,37,-43,31,-12,-24,29,48,-1,84,-127,8,-8,-12,25,36,-28,80,-7,-125,-7,7,13,10,-39,2,0,-74,89,-27,48,-57,17,-67,100,51,-47,33,58,-27,3,43,-73,24,-109,-17,30,9,-18,10,58,-58,20,-11,59,-15,-58,-1,30,23,14,-15,19,-28,-2,-30,-73,-32,33,-93,-31,5,-28,68,72, 
  /* [81][0][][] */ -76,-18,7,-14,-15,5,31,-26,-5,-35,14,1,8,-52,11,76,31,29,24,-23,-127,34,10,-19,34,42,-19,-12,43,11,6,20,8,10,36,-48,-11,-43,-1,7,-23,-10,-60,-6,-18,12,78,-14,5,24,-47,24,27,45,-29,16,-14,-12,65,-35,-50,-41,-15,25,15,25,61,27,26,9,37,10,-22,-28,6,30,13,-16,13,-25,-33,-110,16,41,50,37,-72,-15,32,-31,-35,-25,55,8,23,11,20,94,39,19,-45,-77, 
  /* [82][0][][] */ -11,7,-39,45,-14,32,-10,-35,-35,51,-2,-8,-91,44,36,78,53,-11,12,53,-67,45,20,-26,-51,-51,14,-31,39,46,23,-33,-85,60,79,-38,-56,-18,-66,-52,-51,-35,9,36,-9,-4,34,-19,37,-60,-3,28,52,65,6,50,-25,47,47,-33,-7,-19,82,-52,58,47,-30,11,-10,-44,2,33,2,-17,11,-96,31,-20,-127,88,-3,5,-54,-36,5,-25,4,36,22,-8,-13,-26,-6,17,-23,-16,16,-11,44,-32,42,-97, 
  /* [83][0][][] */ 24,-106,-34,-72,4,-21,61,-76,46,103,37,30,-51,-39,41,-25,72,-38,4,9,-30,-35,70,28,-8,-59,-107,9,12,-38,47,37,-31,-9,-75,-28,-76,-10,-38,70,-44,-71,4,-19,35,57,24,-29,-9,-48,0,1,-42,15,20,20,28,121,48,-51,-43,-104,27,97,-52,-16,-91,13,-11,99,-54,12,17,40,-67,8,-24,39,4,17,-56,-81,-18,-14,-15,-19,-37,-127,-39,3,33,43,-72,-16,1,-61,3,-82,18,86,13,73, 
  /* [84][0][][] */ -75,63,-55,48,5,-74,18,-43,-31,-55,-45,-31,65,109,36,-2,73,-7,-78,-24,-53,-25,-7,-31,30,-42,67,32,-50,-5,-33,-97,-48,-28,17,61,22,-46,127,-11,-32,60,61,-79,-53,-14,-97,-13,-19,62,-24,51,1,11,-18,40,-62,68,-25,-3,-28,-56,37,34,67,84,-99,-44,55,-21,5,-8,-29,-57,-55,10,-21,-44,45,48,-64,18,20,16,-10,53,-10,-2,82,8,2,15,5,-31,111,23,20,54,61,-16,-22,41, 
  /* [85][0][][] */ -6,55,20,42,-45,-4,13,-78,-127,13,39,-31,16,-85,27,44,16,-11,-41,-42,5,-12,46,-44,109,-39,-51,-90,33,-37,52,77,-41,45,-3,7,43,15,2,-20,11,-44,-32,4,0,6,-47,-7,-14,-70,-26,100,-13,-21,-32,-14,-21,96,23,-5,3,56,-15,-76,50,48,-41,6,0,-40,107,-76,2,-62,-55,-13,-7,-89,-78,52,-18,79,43,-114,-7,-25,-4,-10,-64,-56,35,24,31,-42,15,2,-12,-21,-63,-49,-96,31, 
  /* [86][0][][] */ 1,14,-64,-9,45,-8,-20,-90,-17,-41,-14,49,55,-70,-45,-41,-20,-5,-48,-23,-52,49,43,-18,47,-54,-26,-28,42,22,-2,-28,39,-28,20,-3,-42,-23,65,-102,-45,20,15,1,-13,-54,-53,-28,-53,-1,30,30,-19,-25,-10,-21,15,-73,33,-16,18,49,-25,41,6,-41,10,-19,-38,25,57,-1,-13,-55,-20,-2,-19,-20,25,-29,43,12,-6,-32,12,-78,46,-26,-46,51,-23,48,-69,127,-28,-51,38,-57,-12,22,-17,-28, 
  /* [87][0][][] */ 127,46,24,52,18,-6,12,-20,38,12,15,-12,25,-8,86,5,13,15,-18,3,6,-6,39,-42,-10,-37,76,-37,17,-14,31,2,-84,62,-42,0,75,-8,-23,-54,-14,79,-2,21,0,27,19,18,49,60,16,5,27,23,26,-7,-28,-29,-47,26,17,10,-21,-51,21,9,10,80,76,15,59,2,-14,-23,11,17,-75,8,-27,-18,20,63,58,55,3,71,71,-14,7,86,28,27,53,-18,-73,-53,33,17,-1,-60,-9,-60, 
  /* [88][0][][] */ -5,30,35,26,-9,5,45,-6,11,33,-15,10,-2,-69,18,-127,17,62,0,-72,-60,-17,12,8,30,28,31,-70,54,96,27,-2,-48,-23,-35,-51,-40,-11,49,38,-23,18,-12,68,56,-8,-29,-3,93,50,29,-5,-45,86,95,-19,13,-50,104,-15,92,14,-60,7,-39,16,-73,54,6,-8,20,-26,35,-10,-26,-45,17,2,-57,-74,-62,13,28,3,45,13,-119,-98,86,4,10,-54,21,-70,107,5,42,67,51,37,-38,-57, 
  /* [89][0][][] */ 33,39,55,43,37,-32,-70,-127,50,-6,-34,107,43,-19,-25,-109,38,104,10,31,29,-13,-1,6,-48,41,12,59,47,-59,-80,-9,3,52,-10,-10,52,6,-11,21,-68,0,-3,20,-6,102,-68,40,-19,-28,43,-50,24,-68,-19,41,-51,16,-21,27,-77,-6,15,-12,-21,62,-27,16,86,-46,-108,57,-26,-38,-3,-13,-41,36,-98,46,5,43,-19,-9,0,12,11,-23,-36,53,20,-2,29,25,7,6,52,-29,19,1,-37,-75, 
  /* [90][0][][] */ 73,9,-53,36,-35,-53,93,-93,-75,-37,13,69,115,-78,-36,-4,89,-41,-74,-22,-126,-29,25,-20,11,-24,23,-19,-11,-5,37,-56,37,-12,34,-33,61,36,-45,-7,-38,87,16,-22,14,94,5,-16,29,43,23,8,-21,-35,-15,31,-9,-46,-32,-41,-93,0,4,-60,-32,-2,13,68,82,-32,-6,43,-15,3,-39,57,-23,62,-84,-127,-59,-10,-13,66,-41,6,1,34,26,-7,74,28,73,-48,73,38,69,-8,81,3,98,-38, 
  /* [91][0][][] */ -28,10,23,-20,-18,-26,-60,-23,-37,21,-39,-22,-8,-42,39,-127,88,-15,15,-17,19,-48,41,76,33,-49,-68,-7,-17,38,-14,25,-76,44,0,-45,46,-24,-45,-7,-11,49,-8,64,-15,7,78,25,-59,14,45,-5,-36,39,-27,-53,42,-22,-15,23,-29,-38,20,59,-5,8,12,-27,23,24,-15,37,0,9,30,22,-20,-33,-48,22,-77,15,18,-54,13,-45,-33,61,-64,66,38,36,-34,-65,74,-62,31,1,-23,76,4,-31, 
  /* [92][0][][] */ 24,-50,-42,34,-25,27,-88,7,-70,-50,-75,-30,33,10,-28,38,-33,26,-64,-70,-62,-33,4,-37,73,-9,-9,-67,-65,18,-98,9,-37,14,20,-6,8,-43,43,7,-14,0,-14,11,48,-62,61,10,17,-54,-16,-14,18,43,-7,-54,11,-11,1,40,-5,20,2,29,-46,0,10,-4,-56,-33,46,-53,-21,28,29,-48,-10,-87,56,-7,6,-43,-34,-22,30,-33,-39,66,76,-34,-30,-55,-127,-88,33,105,16,10,-33,12,-11,-42, 
  /* [93][0][][] */ -1,-44,3,44,-25,78,15,-28,36,-9,-36,20,-33,58,-11,-17,41,59,-94,47,-49,-32,41,101,-80,-11,-8,3,12,-13,56,79,-4,-95,5,1,-34,38,-6,39,-70,-33,-47,60,31,-11,82,47,-44,-28,-3,71,-5,-44,-44,-3,-33,127,-75,20,31,94,-57,-40,81,56,1,-7,22,46,-75,40,98,-83,-70,-8,-14,55,23,44,19,-72,-26,-5,12,-50,26,-64,28,-62,-1,7,14,-80,-30,90,42,30,30,-48,-39,-15, 
  /* [94][0][][] */ -59,-50,82,7,-11,7,-6,-71,-36,-59,14,-49,57,-40,21,111,-60,49,108,-15,-24,50,-27,-25,56,-38,-45,-65,108,4,24,4,-81,12,53,57,22,-26,-3,-90,-60,-34,9,-113,-23,79,-30,-69,52,-32,47,16,-38,-7,12,-41,-47,61,30,-34,-58,-10,14,16,33,62,40,119,-1,-36,-1,20,36,-2,-41,7,-7,14,-38,24,-53,95,-28,9,-6,-84,-25,19,-29,-27,-39,-51,57,7,-23,-13,-38,-67,127,-74,-33,-64, 
  /* [95][0][][] */ 33,27,42,-45,-3,49,-46,-37,7,19,14,-21,-6,-63,113,20,89,65,-45,-23,-41,24,55,79,-69,-33,-55,-51,-20,98,119,-11,-51,-93,-2,-40,16,-47,-16,-23,19,-5,48,-42,-40,-41,-80,-72,83,-50,-2,-50,68,2,106,-36,-12,26,15,0,34,40,-60,-63,26,17,3,-28,18,9,-75,-72,22,-22,-39,-14,-83,33,35,43,-56,-33,-14,-91,127,-11,39,-40,1,-81,-32,25,-124,18,-24,-48,53,8,52,114,42,18, 
  /* [96][0][][] */ -47,-4,4,31,33,23,39,0,14,-29,-65,15,33,-52,2,5,-4,-17,26,-9,20,-35,4,4,-6,-25,25,-9,-2,18,20,8,-39,39,12,1,32,-30,50,45,-32,40,40,20,-17,26,-29,-34,-36,-31,-32,31,-5,-8,-10,-2,-4,12,13,-2,11,16,7,-23,-34,14,63,32,24,-17,-127,-15,25,-30,6,-28,-8,-33,-1,-38,-57,-12,-24,9,-6,18,22,27,32,-11,19,12,6,-25,13,-20,14,-10,4,22,26,-16, 
  /* [97][0][][] */ 5,41,-96,47,-28,48,-21,18,-4,-67,-38,40,12,-46,31,101,59,16,34,23,-11,97,40,9,-43,-67,70,-17,61,-62,61,-62,95,4,-124,68,-127,-94,-68,-63,4,-29,-26,-12,-74,-48,-87,38,58,-91,-89,78,22,-42,-113,-26,-95,-10,99,47,-45,-5,19,22,16,79,3,25,-48,-42,-24,25,49,-78,-71,-3,-45,-25,-30,-70,-88,45,-12,-14,-49,-1,-27,-6,-32,11,-11,37,16,-18,-76,38,14,-72,-26,-37,-55,-43, 
  /* [98][0][][] */ 12,-25,43,-38,-107,-47,-13,-14,12,-28,0,6,16,-2,-44,26,75,-126,-37,-60,-84,-5,-29,4,33,-6,34,-40,-21,-37,-73,-60,110,34,64,53,58,-69,-70,46,-9,-26,15,-82,5,-88,15,0,28,13,41,90,-4,13,74,-14,43,-32,42,44,52,127,48,73,-73,-18,59,-5,-42,24,0,16,-4,42,71,-22,29,-15,127,5,63,12,-4,93,-4,-1,46,-93,25,54,12,-116,-36,-5,5,6,-51,65,116,65,-105,-38, 
  /* [99][0][][] */ -52,41,88,16,34,-24,24,69,29,66,0,-51,-40,-12,3,-54,-38,69,1,-47,-72,-8,-42,24,-19,-1,-8,40,-119,-37,-1,-20,-28,14,-25,63,-3,3,24,18,-29,8,-74,26,64,-46,75,-29,-33,23,51,6,76,19,6,33,-5,-40,14,-82,21,25,-14,-27,113,31,-1,-127,9,-60,55,-84,7,78,4,111,33,-37,-94,0,29,31,65,13,-76,72,60,-77,-87,-33,49,-13,-36,-47,-8,-55,-71,61,-3,-64,32,110, 
  /* [100][0][][] */ 57,-16,18,-8,-6,-10,18,25,-21,77,-11,39,17,-28,-25,-62,47,10,34,26,31,-60,38,-125,17,-80,-11,5,9,53,13,1,-71,-20,12,21,39,-122,-43,17,48,-35,-38,36,5,20,-54,-70,35,58,-23,-19,-24,-24,68,33,-21,-41,-127,-3,14,-31,7,-36,19,59,32,-5,28,-50,44,18,26,51,-15,25,28,-57,-18,-12,-25,-5,16,20,-9,-48,35,0,-16,-24,101,43,-96,-30,10,-23,1,16,8,-16,-36,-12, 
  /* [101][0][][] */ 2,-7,-21,-56,-56,-33,-23,-17,0,23,12,-7,-13,54,-16,-22,22,-43,11,33,5,16,-64,31,-37,-15,28,8,28,14,-4,85,-22,-12,-41,-27,21,27,-5,66,16,-10,36,-10,-35,-34,24,25,-33,-25,10,-57,16,18,-24,-48,-2,-92,71,17,56,-55,28,-48,-20,34,-22,-6,-23,-22,37,-12,28,-13,16,19,32,-24,-21,-14,25,-25,-42,-8,-23,0,-31,6,44,-32,-4,15,-84,36,-66,51,-27,-15,-127,28,-41,8, 
};
const TfArray<4, int> tensor_dimension8 = { 4, { 102,1,1,102 } };
const TfArray<102, float> quant8_scale = { 102, { 0.0093289930373430252, 0.0095907747745513916, 0.0092053953558206558, 0.0096968589350581169, 0.00832334253937006, 0.0092323347926139832, 0.010513289831578732, 0.01099532563239336, 0.0098779527470469475, 0.0073778587393462658, 0.011264805682003498, 0.012748654931783676, 0.0081083774566650391, 0.010658414103090763, 0.010650245472788811, 0.010139058344066143, 0.0070995064452290535, 0.016229325905442238, 0.0088431080803275108, 0.0082460213452577591, 0.010226431302726269, 0.0088987462222576141, 0.0089580081403255463, 0.013787523843348026, 0.010698070749640465, 0.0077902954071760178, 0.0098529579117894173, 0.0085051413625478745, 0.0094890249893069267, 0.0097001902759075165, 0.01153696421533823, 0.0086400285363197327, 0.012879678979516029, 0.0073806312866508961, 0.0090649938210844994, 0.023858193308115005, 0.0078803533688187599, 0.0091460971161723137, 0.0088685052469372749, 0.011882099322974682, 0.0068993526510894299, 0.0084636742249131203, 0.0089266374707221985, 0.012005741707980633, 0.0078092883341014385, 0.008027985692024231, 0.017185790464282036, 0.0092953769490122795, 0.0099757090210914612, 0.010002153925597668, 0.01399180106818676, 0.0085392547771334648, 0.0081694228574633598, 0.0087465532124042511, 0.0070766243152320385, 0.012541888281702995, 0.0081731714308261871, 0.0095840571448206902, 0.0082608377560973167, 0.0091935135424137115, 0.010707374662160873, 0.010122645646333694, 0.0085307629778981209, 0.0079919984564185143, 0.0079145282506942749, 0.0090070236474275589, 0.011660284362733364, 0.0098184710368514061, 0.01078388188034296, 0.0088733872398734093, 0.012407267466187477, 0.010756000876426697, 0.0088948775082826614, 0.0086654266342520714, 0.0088754808530211449, 0.012605703435838223, 0.011050986126065254, 0.011296593584120274, 0.0088148145005106926, 0.0079273376613855362, 0.0078810779377818108, 0.010902052745223045, 0.011618039570748806, 0.008089795708656311, 0.0091223977506160736, 0.0089354943484067917, 0.010718937963247299, 0.011307616718113422, 0.0091008283197879791, 0.0098576946184039116, 0.0096014803275465965, 0.0099132442846894264, 0.0097620012238621712, 0.0085855936631560326, 0.0081314751878380775, 0.0073195667937397957, 0.013411924242973328, 0.0066550145857036114, 0.0070045921020209789, 0.0074740704149007797, 0.010877876542508602, 0.011516246944665909, } };
const TfArray<102, int> quant8_zero = { 102, { 0,0,0,0,0,0,0,0,0,0,0,0,0,0,0,0,0,0,0,0,0,0,0,0,0,0,0,0,0,0,0,0,0,0,0,0,0,0,0,0,0,0,0,0,0,0,0,0,0,0,0,0,0,0,0,0,0,0,0,0,0,0,0,0,0,0,0,0,0,0,0,0,0,0,0,0,0,0,0,0,0,0,0,0,0,0,0,0,0,0,0,0,0,0,0,0,0,0,0,0,0,0 } };
const TfLiteAffineQuantization quant8 = { (TfLiteFloatArray*)&quant8_scale, (TfLiteIntArray*)&quant8_zero, 0 };
const MODEL_SECTION(EI_MODEL_SECTION) ALIGN(16) int32_t tensor_data9[102] = { 30590, -14111, 16109, 10448, 27309, 20828, 50383, 8718, 18870, 11513, -11657, -23549, 30115, 31875, 7556, 25636, 15830, 9871, -4308, -4599, 10331, -6957, -18842, 15432, 5828, 18194, -330, 26235, 19046, -5077, -3858, -13214, 16604, -7352, 21238, 22609, 28857, -7469, -6660, -22577, 13441, -11619, 11566, 8930, 9679, 13253, 11772, 24438, 15785, 23992, 14985, 23360, 12765, -11048, -364, 18649, 5241, -6921, 11531, -8420, 29217, -1982, 3151, -3668, 25655, 11532, -214, -15449, 17826, 15790, 14232, -10304, 28, -5999, 11705, -7614, -12004, 127, 27857, -13134, -3745, 18150, -3899, 18923, -2357, 22073, 17427, 15262, -1934, 31856, 13165, 22246, -4580, 28247, 27172, 13716, -11306, -6971, 11991, -2220, 6615, -3798, };
const TfArray<1, int> tensor_dimension9 = { 1, { 102 } };
const TfArray<102, float> quant9_scale = { 102, { 8.0745543527882546e-05, 0.0001710375800030306, 0.00021808194287586957, 0.00035193871008232236, 0.00011392631859052926, 0.00017089575703721493, 5.2542916819220409e-05, 0.00045515023521147668, 0.00033597188303247094, 0.00026672528474591672, 0.00015741988318040967, 0.00013662465789820999, 5.9082718507852405e-05, 0.00012499695003498346, 0.0004174217174295336, 6.3407096604350954e-05, 0.0002578663406893611, 0.00041100793168880045, 0.00019478643662296236, 0.00011781014472944662, 0.00038811514968983829, 0.00012931268429383636, 0.00015864887973293662, 0.00021589924290310591, 0.00049229024443775415, 0.00017432644381187856, 9.948512160917744e-05, 0.00012938710278831422, 0.00014200393343344331, 0.00011573373922146857, 0.00061440956778824329, 0.00021834834478795528, 0.00024909726926125586, 0.00023119799152482301, 0.00015666591934859753, 0.00025627680588513613, 0.00019514310406520963, 0.00011300986807327718, 0.00025030679535120726, 0.0001038790651364252, 0.00032275306875817478, 0.00017433962784707546, 0.00026759362663142383, 0.00035866184043698013, 0.00023506740399170667, 0.00018627024837769568, 0.00021612350246869028, 0.000125261110952124, 0.00018597560119815171, 0.0001135487764258869, 0.00012191529822302982, 0.00016368682554457337, 0.00022199504019226879, 0.0001274553214898333, 9.1755959147121757e-05, 0.00018843458383344114, 0.00020002134260721505, 0.00029210522188805044, 0.00034748893813230097, 0.00012399826664477587, 0.00010866949742194265, 0.00018548448861110955, 0.00068476685555651784, 5.7123495935229585e-05, 0.00015125892241485417, 0.000230662219109945, 0.00017708096129354089, 0.00010982788808178157, 0.00015959830489009619, 0.00032732178806327283, 0.00017893800395540893, 0.00013594357005786151, 0.00021575189020950347, 0.00018310941231902689, 0.00037809033528901637, 0.00019675145449582487, 0.00016145952395163476, 0.00011778851330745965, 0.00014864928380120546, 0.00015283630636986345, 0.00023059682280290872, 0.00016822743054945022, 7.6068521593697369e-05, 0.00014507245214190334, 0.00011047984298784286, 0.0001852811110438779, 0.00024911822401918471, 0.00022457449813373387, 0.00017375400057062507, 0.0001253585796803236, 0.00024151138495653868, 0.0001392537378706038, 0.00011806294060079381, 0.00013778782158624381, 0.00014530385669786483, 0.00028061910415999591, 0.00011451260070316494, 0.00013871885312255472, 0.00025404238840565085, 0.00014668126823380589, 0.00045693831634707749, 0.00013399428280536085, } };
const TfArray<102, int> quant9_zero = { 102, { 0,0,0,0,0,0,0,0,0,0,0,0,0,0,0,0,0,0,0,0,0,0,0,0,0,0,0,0,0,0,0,0,0,0,0,0,0,0,0,0,0,0,0,0,0,0,0,0,0,0,0,0,0,0,0,0,0,0,0,0,0,0,0,0,0,0,0,0,0,0,0,0,0,0,0,0,0,0,0,0,0,0,0,0,0,0,0,0,0,0,0,0,0,0,0,0,0,0,0,0,0,0 } };
const TfLiteAffineQuantization quant9 = { (TfLiteFloatArray*)&quant9_scale, (TfLiteIntArray*)&quant9_zero, 0 };
const MODEL_SECTION(EI_MODEL_SECTION) ALIGN(16) int8_t tensor_data10[1*3*3*102] = { 
  /* [0][0][][] */ -78,13,-14,19,-50,-101,-64,-119,-13,-70,92,127,-120,-25,21,-127,-64,2,-67,79,-9,22,118,-57,-68,-50,-8,-31,-89,5,12,120,2,92,33,-114,-70,73,61,92,-14,105,-37,-52,91,-62,-34,-116,-53,-77,-90,25,-52,81,63,-99,80,63,-31,26,-67,-23,33,112,-127,-24,79,127,-120,-89,-127,97,-84,7,-57,63,63,32,23,83,-72,-43,38,-6,125,-78,-121,-37,-2,-94,-53,-127,-5,-68,-127,-105,51,30,-6,64,-18,9, -61,30,-127,-67,-60,-70,-81,-112,-19,-108,127,101,-127,-85,-127,-103,-127,-46,7,89,-120,127,38,-127,-117,-127,70,-127,-127,127,55,91,-29,121,31,-55,-53,36,71,104,-76,66,-127,-77,127,-47,-13,-78,-73,-124,-28,-12,-118,112,-34,-99,114,106,-122,114,-30,-44,34,61,-110,-57,127,39,-102,-79,-97,119,-75,127,-111,70,76,43,28,127,-6,-83,97,-100,88,-77,17,-23,66,-68,-122,-109,35,-127,-54,-86,81,106,-109,27,-54,127, -69,53,-7,22,-34,-114,-75,-6,-3,-66,81,109,-125,-48,31,-117,-49,11,-60,78,-2,28,70,-49,-64,-105,10,-20,-73,11,21,127,5,89,18,-95,-62,-14,48,95,-14,127,-45,-45,81,-44,-37,-118,-43,-85,-80,24,-43,86,33,-67,84,51,-7,22,-77,-35,20,127,-115,-62,82,119,-76,-87,-114,106,-80,-7,-63,52,61,39,13,86,-41,-34,-3,-7,120,-77,-102,-49,-6,-78,-72,-102,-11,-54,-82,-76,36,29,4,20,-21,-10, 
  /* [0][1][][] */ -92,47,-24,-41,-102,-70,-127,-85,-44,-24,80,97,-113,-80,-85,-50,-52,-17,69,95,-34,91,92,-66,-92,-55,17,-55,-79,44,22,64,-84,103,-63,-33,-109,54,39,93,-20,46,-61,-34,-73,-40,-74,-51,-81,-107,-72,-56,-94,126,27,-11,-19,70,3,99,-4,20,-71,119,-69,-90,45,37,-87,-18,-125,103,6,84,-46,98,45,35,-66,69,66,-65,124,-113,63,-17,-49,-97,46,-116,-31,-112,51,-60,-100,-12,53,40,-37,15,10,59, -127,-4,-76,-127,-127,9,-24,-127,-127,-23,23,89,-77,-127,-114,-97,-90,-127,127,127,-127,56,29,-46,-127,-119,127,-55,-102,124,127,74,-103,127,-119,37,-127,11,88,127,-127,43,-99,-127,-77,-127,-127,-127,-127,-127,-83,-127,-127,127,127,-103,-121,127,-127,127,-97,127,-127,88,-47,-82,63,50,-10,1,-108,127,-63,36,-60,127,110,127,-127,64,107,-127,127,-101,31,-122,-62,-127,127,-97,-127,-86,98,-99,-83,-43,127,127,-127,88,-127,102, -78,38,-24,-28,-110,-85,-121,-87,-37,-27,102,77,-72,-79,-79,-51,-55,-7,67,88,-35,90,127,-76,-86,-109,-14,-67,-84,36,32,50,-82,85,-56,-56,-119,87,31,88,-10,22,-54,-30,-65,-60,-64,-58,-72,-108,-67,-58,-86,112,44,-7,1,77,-1,101,5,21,-19,100,-67,-127,47,52,-91,-18,-125,94,23,87,-47,67,37,29,-60,66,68,-62,127,-112,73,-19,-60,-83,42,-127,-51,-104,45,-73,-86,-41,43,41,-32,25,14,34, 
  /* [0][2][][] */ -100,117,-27,-69,-50,-112,-39,-86,-43,-56,20,-72,-88,-19,-56,-100,-18,-50,-56,8,-4,-38,52,2,-49,-59,-11,-114,78,38,12,106,-93,65,-21,-127,-27,124,56,108,-8,29,27,-11,-29,-54,5,-86,-15,-103,-127,25,-56,35,101,-121,7,-5,-38,-64,-94,2,-70,-27,-89,-107,-17,59,-109,-119,-94,14,104,-62,-60,-5,63,38,-34,30,81,-32,27,-55,127,-68,-127,-18,-12,-100,-4,-42,22,-69,-18,-127,51,45,-43,71,-6,36, -43,127,-41,-71,-66,-43,-86,-60,-78,-127,68,97,-106,-75,-41,-76,3,-71,-3,37,-86,91,57,-4,-54,-66,3,-95,-104,121,16,73,-127,62,-127,-67,-41,127,127,-10,-16,51,-16,11,-70,38,-8,-43,-92,-47,-44,-94,-9,48,77,-63,-127,-30,-4,20,-127,119,-115,105,-65,-69,-92,79,-39,-124,-106,22,127,-127,-127,-1,127,-20,-124,50,62,-39,114,-127,-12,-127,-48,-66,23,-28,-7,14,127,-88,-67,-101,26,62,-50,127,-86,42, -102,111,-29,-67,-39,-127,-61,18,-57,-67,9,33,-90,-8,-83,-93,-18,-43,-34,24,-22,-19,27,-11,-56,-86,13,-85,89,39,7,104,-87,54,-22,-116,-10,104,30,122,-9,-5,11,-21,-33,-46,4,-79,-3,-99,-119,2,-64,33,97,-127,-31,1,-32,-34,-83,17,-124,-29,-84,-102,-19,59,-127,-127,-34,26,99,-61,-42,-1,56,47,-37,27,-127,-31,-5,-66,125,-67,-109,-28,-14,-83,-6,-49,25,-51,2,-110,60,41,-41,76,-2,57, 
};
const TfArray<4, int> tensor_dimension10 = { 4, { 1,3,3,102 } };
const TfArray<102, float> quant10_scale = { 102, { 0.0042362394742667675, 0.0089733265340328217, 0.011441465467214584, 0.018464135006070137, 0.0059770378284156322, 0.0089658861979842186, 0.0027566149365156889, 0.023879030719399452, 0.017626451328396797, 0.013993493281304836, 0.0082588866353034973, 0.0071678850799798965, 0.0030997195281088352, 0.0065578478388488293, 0.021899640560150146, 0.0033265938982367516, 0.013528716750442982, 0.021563146263360977, 0.010219288058578968, 0.0061807991005480289, 0.020362097769975662, 0.0067842691205441952, 0.0083233648911118507, 0.011326951906085014, 0.025827547535300255, 0.009145873598754406, 0.0052193938754498959, 0.0067881732247769833, 0.0074501032941043377, 0.0060718622989952564, 0.032234422862529755, 0.011455441825091839, 0.013068655505776405, 0.012129586189985275, 0.0082193305715918541, 0.013445322401821613, 0.010238000191748142, 0.0059289569035172462, 0.013132112100720406, 0.0054499180987477303, 0.016932938247919083, 0.0091465655714273453, 0.014039049856364727, 0.018816858530044556, 0.012332591228187084, 0.0097724944353103638, 0.011338717304170132, 0.0065717073157429695, 0.0097570363432168961, 0.0059572304598987103, 0.0063961721025407314, 0.0085876761004328728, 0.011646762490272522, 0.006686823908239603, 0.0048138904385268688, 0.0098860440775752068, 0.010493932291865349, 0.015325026586651802, 0.018230682238936424, 0.0065054530277848244, 0.0057012434117496014, 0.0097312703728675842, 0.035925652831792831, 0.0029969308525323868, 0.0079356580972671509, 0.012101477943360806, 0.0092903869226574898, 0.0057620173320174217, 0.008373175747692585, 0.017172630876302719, 0.0093878153711557388, 0.0071321525610983372, 0.011319220997393131, 0.0096066640689969063, 0.019836155697703362, 0.010322380810976028, 0.0084708230569958687, 0.00617966428399086, 0.0077987457625567913, 0.0080184135586023331, 0.012098046950995922, 0.0088258944451808929, 0.0039908639155328274, 0.0076110903173685074, 0.0057962215505540371, 0.0097206002101302147, 0.013069754466414452, 0.011782091110944748, 0.0091158412396907806, 0.0065768202766776085, 0.0126706687733531, 0.0073058167472481728, 0.0061940615996718407, 0.0072289095260202885, 0.0076232305727899075, 0.01472241897135973, 0.0060077966190874577, 0.0072777546010911465, 0.013328095898032188, 0.0076954956166446209, 0.02397284097969532, 0.0070298844948410988, } };
const TfArray<102, int> quant10_zero = { 102, { 0,0,0,0,0,0,0,0,0,0,0,0,0,0,0,0,0,0,0,0,0,0,0,0,0,0,0,0,0,0,0,0,0,0,0,0,0,0,0,0,0,0,0,0,0,0,0,0,0,0,0,0,0,0,0,0,0,0,0,0,0,0,0,0,0,0,0,0,0,0,0,0,0,0,0,0,0,0,0,0,0,0,0,0,0,0,0,0,0,0,0,0,0,0,0,0,0,0,0,0,0,0 } };
const TfLiteAffineQuantization quant10 = { (TfLiteFloatArray*)&quant10_scale, (TfLiteIntArray*)&quant10_zero, 3 };
const MODEL_SECTION(EI_MODEL_SECTION) ALIGN(16) int32_t tensor_data11[102] = { 3806, 24013, -15679, 18381, -18633, 15355, 12426, 13550, 66916, 8784, -8075, 15125, -16471, -2257, 11595, 343, -17064, -2246, -8646, -14416, -13564, -10932, 5332, 17396, -24605, 991, -14474, 5974, -5172, -43658, 39178, -14207, 31845, -19327, 39301, 875, 19087, 5634, -23970, 43532, 44023, -10145, 2930, 9227, 25480, 34321, 41144, 14249, 6873, 48132, 11795, -28849, 16497, 10837, -9463, 3529, 12486, 8534, -3573, -9473, -5151, 362, 43615, -7193, -447, -674, -45353, 7530, -10452, 5647, 6, 12229, -4034, -4121, 15644, 18210, 18625, 23023, 28552, -22569, -20330, 34269, -19778, 32200, -7374, 5736, -11387, 32975, 22307, 7609, 22421, 18499, 360, -12956, 22941, -16686, 616, 12973, -10866, -24101, -5231, 5947, };
const TfArray<1, int> tensor_dimension11 = { 1, { 102 } };
const TfArray<102, float> quant11_scale = { 102, { 9.7237847512587905e-05, 6.0396734625101089e-05, 5.4698648455087095e-05, 4.2461480916244909e-05, 6.2603525293525308e-05, 6.0187812778167427e-05, 0.00016874268476385623, 4.7289810026995838e-05, 4.2123327148146927e-05, 5.5079672165447846e-05, 6.8213594204280525e-05, 8.3817431004717946e-05, 0.00011432767496444285, 6.2616578361485153e-05, 3.5988690797239542e-05, 0.00012453638191800565, 4.6324170398293063e-05, 3.9604768971912563e-05, 6.4349791500717402e-05, 6.0518585087265819e-05, 4.0962553612189367e-05, 9.9250224593561143e-05, 8.059653191594407e-05, 4.5308021071832627e-05, 3.4113309084204957e-05, 7.833027484593913e-05, 0.00014346007083076984, 5.9171383327338845e-05, 5.7366443797945976e-05, 6.8606466811615974e-05, 3.5145738365827128e-05, 4.5683504140470177e-05, 3.941847535315901e-05, 5.9223944845143706e-05, 6.8505061790347099e-05, 5.5744701967341825e-05, 4.125300984014757e-05, 9.2179143393877894e-05, 3.7446585338329896e-05, 0.00010118533828062937, 5.2712657634401694e-05, 8.0098201578948647e-05, 6.550199759658426e-05, 6.6616572439670563e-05, 6.4507803472224623e-05, 8.1824422522913665e-05, 8.210700616473332e-05, 7.9293429735116661e-05, 0.00010023997310781851, 8.8436463556718081e-05, 9.3170150648802519e-05, 0.00010094914614455774, 7.9842830018606037e-05, 8.2801831013057381e-05, 0.00010486674000276253, 9.5240633527282625e-05, 6.1696089687757194e-05, 3.7237929063849151e-05, 5.412123937276192e-05, 6.8910769186913967e-05, 9.2988069809507579e-05, 8.1665806646924466e-05, 3.324031422380358e-05, 0.00011592914961511269, 4.9799225962487981e-05, 8.2590500824153423e-05, 5.6724344176473096e-05, 9.8435673862695694e-05, 7.5012430897913873e-05, 4.4339314626995474e-05, 6.1680730141233653e-05, 5.4838466894580051e-05, 7.0030386268626899e-05, 6.735927308909595e-05, 5.1314138545421883e-05, 6.3897750806063414e-05, 6.3726693042553961e-05, 0.00011695403372868896, 4.8165682528633624e-05, 5.7250814279541373e-05, 6.2087041442282498e-05, 8.224654447985813e-05, 9.4575909315608442e-05, 4.4508382416097447e-05, 9.2020563897676766e-05, 4.6411689254455268e-05, 8.37729821796529e-05, 5.5478310969192535e-05, 8.5224615759216249e-05, 5.4705680668121204e-05, 6.8534958700183779e-05, 0.00011464244744274765, 9.1348352725617588e-05, 7.2066752181854099e-05, 5.8829627960221842e-05, 4.5905941078672186e-05, 0.00010612238111207262, 8.0063175118993968e-05, 6.9319445174187422e-05, 5.8465670008445159e-05, 6.4151798142120242e-05, 0.00011460993846412748, } };
const TfArray<102, int> quant11_zero = { 102, { 0,0,0,0,0,0,0,0,0,0,0,0,0,0,0,0,0,0,0,0,0,0,0,0,0,0,0,0,0,0,0,0,0,0,0,0,0,0,0,0,0,0,0,0,0,0,0,0,0,0,0,0,0,0,0,0,0,0,0,0,0,0,0,0,0,0,0,0,0,0,0,0,0,0,0,0,0,0,0,0,0,0,0,0,0,0,0,0,0,0,0,0,0,0,0,0,0,0,0,0,0,0 } };
const TfLiteAffineQuantization quant11 = { (TfLiteFloatArray*)&quant11_scale, (TfLiteIntArray*)&quant11_zero, 0 };
const MODEL_SECTION(EI_MODEL_SECTION) ALIGN(16) int8_t tensor_data12[102*1*1*51] = { 
  /* [0][0][][] */ 32,-2,100,14,-64,98,-50,-89,-16,-53,29,67,-127,13,-6,9,-63,-9,-47,-13,-50,-3,-4,19,62,-5,54,-31,11,21,2,-30,-13,-38,-3,-62,-20,56,32,56,-5,30,-44,-12,42,-14,101,-104,-13,-12,12, 
  /* [1][0][][] */ -100,-36,-2,7,-59,8,27,-127,19,-29,106,26,11,-94,79,-57,19,-31,50,7,-12,52,36,16,-111,-43,7,-103,-1,2,-77,-20,-62,107,-75,30,73,-95,-12,-36,-2,12,38,24,92,86,98,-89,-25,-64,117, 
  /* [2][0][][] */ -50,8,48,50,123,-127,85,4,111,103,12,-68,-29,-15,-38,13,89,-75,-73,31,23,47,-19,-71,-49,41,116,-46,100,23,117,-87,-11,67,19,-86,31,8,56,20,19,95,-8,-13,30,119,89,-56,-31,-19,-60, 
  /* [3][0][][] */ -43,13,-50,51,5,-85,-72,127,-7,93,33,64,-48,18,-67,-79,88,-48,56,-23,-17,-28,-76,-14,38,-80,-24,-79,45,6,5,70,72,115,35,-79,-23,12,-1,-13,-16,-28,-45,47,-6,-57,75,126,-26,-86,-100, 
  /* [4][0][][] */ -127,-70,12,60,-76,36,-33,-13,5,17,66,9,53,27,67,-12,42,-31,42,48,-39,96,-25,-37,81,-21,15,124,74,8,16,-74,37,-52,-14,35,-16,3,120,-47,23,8,52,48,27,22,18,70,-33,-57,-3, 
  /* [5][0][][] */ -48,20,-73,11,-14,51,-16,-1,10,25,-48,30,-55,36,-42,-13,9,-63,16,21,100,80,19,8,25,63,-18,-127,3,13,-6,-25,-76,30,-114,18,-71,23,23,-3,15,39,36,43,43,-23,-30,-39,36,-58,42, 
  /* [6][0][][] */ -6,49,94,-41,-21,-48,-67,1,-9,5,-27,36,-127,63,71,14,47,26,-36,-7,-45,31,-14,-19,1,-32,8,-34,-76,0,-24,17,-2,35,-18,-50,-83,1,56,-11,29,-19,42,-20,-54,2,35,35,-6,-5,-16, 
  /* [7][0][][] */ -38,32,30,77,80,37,-21,35,-5,-56,-60,-12,-13,-31,53,24,85,-38,-29,49,-8,20,-32,9,19,7,14,0,-39,0,-47,-73,33,-71,-17,-9,19,0,-23,11,18,-46,-57,35,55,-41,1,-127,-56,-12,2, 
  /* [8][0][][] */ -104,-68,46,-68,-42,-13,-1,9,-6,17,38,-8,-29,-48,34,5,-14,127,6,15,-24,48,-95,-17,-45,0,-5,-65,46,32,-66,-2,-19,24,-9,-1,54,-41,-25,-35,16,-55,-97,-21,41,-27,-19,-3,-6,-47,-66, 
  /* [9][0][][] */ -11,-1,-41,-73,-39,53,59,-46,37,-30,4,50,-3,-33,-1,118,-73,44,30,15,-31,-55,-58,-87,-41,42,-21,56,-34,-13,70,7,30,-14,-127,-4,17,66,23,-40,51,-28,-48,46,28,-18,91,-55,9,27,-19, 
  /* [10][0][][] */ -25,75,19,32,19,-12,-46,-11,-31,24,71,82,101,-40,-34,-49,23,80,127,-19,-104,-54,-61,8,25,-9,-56,110,7,-6,0,-103,26,49,-15,-26,-27,-66,-40,18,-13,-6,-19,32,28,43,-20,78,72,-42,-65, 
  /* [11][0][][] */ 115,-71,7,-19,26,-19,5,-103,30,-2,-61,-21,-42,26,41,31,-35,-27,-56,27,48,127,20,-8,25,-44,-117,-10,7,42,-70,-6,5,6,-31,-33,55,19,-22,34,-65,-3,0,17,-12,54,-7,-50,-34,-18,1, 
  /* [12][0][][] */ -73,-34,39,-112,127,-44,-107,-25,2,-40,8,-89,22,25,20,80,124,14,71,35,2,-59,40,41,112,-12,-45,110,47,-5,54,39,28,-14,64,60,85,-35,-3,80,-45,-117,-19,50,-33,35,15,-41,-30,46,14, 
  /* [13][0][][] */ -92,77,16,20,11,45,-74,-28,-65,-35,20,3,49,-38,-83,1,54,-12,83,-70,15,-82,-3,5,54,44,60,102,-19,86,-39,-27,7,71,-68,17,34,-46,42,-73,34,50,41,50,13,-40,5,-21,17,127,-40, 
  /* [14][0][][] */ 23,39,-1,25,-95,18,-71,105,32,-74,-23,54,-20,-45,-50,39,-27,60,-10,-41,67,-3,-22,-50,7,2,-68,-127,12,-41,45,75,-13,68,-3,125,42,-61,-67,27,-14,-98,-5,-18,15,0,38,18,-113,83,-63, 
  /* [15][0][][] */ 48,-46,-34,48,49,1,9,18,-13,-25,21,-29,-70,-10,7,-11,-22,29,-41,54,29,24,73,17,106,17,-81,-24,43,127,-9,-10,0,-54,17,-66,44,-68,-18,43,-19,-18,17,-57,14,-26,-7,-8,-19,5,-10, 
  /* [16][0][][] */ -27,-92,-7,-84,38,-15,0,29,23,60,10,-25,-28,-59,21,5,-25,-84,-26,33,58,111,-67,6,-23,68,20,78,37,67,23,-127,23,8,-63,69,28,57,80,53,-47,75,-65,72,-29,66,55,-3,-16,24,104, 
  /* [17][0][][] */ 58,-21,-19,-85,-28,-25,-34,80,127,112,-77,1,61,53,7,36,32,75,-36,-7,-21,31,-64,-68,65,31,12,-14,38,35,-19,-11,57,1,96,53,-24,-2,-33,-94,-13,28,29,-114,80,-30,20,64,-73,80,-79, 
  /* [18][0][][] */ 51,-7,36,90,-62,-8,-59,113,-26,87,-40,-122,-63,-45,63,44,-58,20,30,-3,44,-6,127,30,-88,100,8,33,-63,-52,-22,-54,-53,-52,47,-5,66,47,89,-123,21,94,-47,15,7,-24,-23,42,-68,41,-25, 
  /* [19][0][][] */ -69,91,19,111,-54,-5,104,14,-24,-46,19,70,10,-60,-29,-12,13,-55,-53,-40,36,0,-73,70,-91,-46,-99,-38,80,29,127,125,91,16,-22,43,43,28,-27,94,-29,-11,74,-21,7,119,4,-88,69,-6,88, 
  /* [20][0][][] */ 53,3,-56,127,-44,-27,0,69,-55,59,18,30,84,-63,11,23,-20,21,5,36,57,-41,-55,4,-21,114,36,-49,-71,-37,-14,-15,-3,-58,68,-122,7,13,-67,-28,-49,66,-18,26,-58,-44,106,34,43,68,-28, 
  /* [21][0][][] */ -3,-12,71,1,-73,37,24,34,43,-6,30,-25,2,22,-75,127,71,8,-7,-60,13,-7,32,27,-6,11,19,-15,67,-6,-26,-41,33,107,69,-18,-26,-5,37,-9,102,27,-53,14,-16,-82,-1,23,-8,-39,-64, 
  /* [22][0][][] */ 70,-37,25,-42,-46,-21,0,-17,93,-43,-51,-109,15,44,4,42,-2,5,15,15,11,14,15,-19,-30,-23,-19,-127,-10,-5,52,-119,-37,-34,34,97,-22,36,84,-56,-5,53,-15,6,44,-17,43,45,-50,14,10, 
  /* [23][0][][] */ -60,20,-18,-58,-3,50,12,15,36,-82,-3,-68,-34,-51,-82,25,-25,90,30,81,-20,-37,25,-79,92,107,-40,90,-74,-86,117,-21,109,-10,-54,-32,5,-127,66,2,-2,-17,62,-104,-116,-31,118,-47,-114,-53,-53, 
  /* [24][0][][] */ -11,-11,-47,56,77,50,45,-19,-3,39,-12,-9,48,-36,127,12,-12,-6,-35,-22,-15,-13,-28,-36,25,50,5,-23,36,-2,11,22,48,9,-31,115,-57,6,-16,-5,-11,-59,78,27,24,-32,35,-52,-44,64,-34, 
  /* [25][0][][] */ 4,22,14,-9,5,37,-1,23,36,-38,6,23,-40,-47,-30,67,42,-19,-12,34,-38,89,-8,80,35,-18,-7,18,6,-10,1,-14,-18,56,-59,12,-39,-4,52,9,127,-33,-18,-1,12,9,-21,-35,-10,6,-26, 
  /* [26][0][][] */ -44,-36,-19,-43,-51,92,64,26,69,28,55,-16,29,-124,-39,99,12,-26,15,34,13,-127,115,76,-56,-13,32,18,-28,-40,124,-38,-53,43,77,-38,52,49,-28,9,58,55,-40,3,28,-60,29,31,-12,21,-65, 
  /* [27][0][][] */ 109,-68,-35,-23,42,-3,36,-17,77,64,29,23,-15,3,-10,18,-11,-4,-72,14,3,49,-41,112,-27,50,27,39,74,-18,35,-127,-43,20,-20,-21,42,46,-21,-51,15,51,37,-30,21,-28,-5,-27,-54,-57,28, 
  /* [28][0][][] */ 36,-52,85,-2,13,46,34,-20,-34,60,78,-33,2,-120,-17,71,-16,-25,-47,-82,-14,-18,-98,9,86,70,3,-16,56,59,76,-37,48,-29,-87,-57,-85,5,78,51,8,-44,71,-26,35,-15,-41,-121,127,8,46, 
  /* [29][0][][] */ -52,94,66,-75,12,1,-15,-60,108,-29,47,41,33,41,41,114,-2,-15,101,11,-34,88,-26,-57,15,-32,126,-71,-49,33,-45,-50,-11,127,47,14,24,-10,62,52,76,39,83,-72,73,14,35,-89,36,40,51, 
  /* [30][0][][] */ -23,-39,23,39,-99,12,-13,-16,-19,-40,-127,-51,-76,-46,17,1,-74,53,-36,-105,-2,-51,50,-25,-30,-8,57,14,-5,-68,24,46,63,34,-57,-67,-84,-47,-26,4,-15,-7,-34,-32,0,-38,40,27,38,81,-78, 
  /* [31][0][][] */ 22,10,51,19,11,50,-75,12,-53,32,-26,47,-19,77,-56,21,-3,-8,-5,-29,33,34,4,51,2,45,-8,90,39,11,127,-37,-37,15,-1,-9,19,53,-52,-82,10,33,65,-15,0,-60,-76,-28,-7,-21,27, 
  /* [32][0][][] */ 62,-15,-65,98,-9,4,-40,-66,-11,-33,-54,65,18,-12,-6,80,42,-38,-69,-59,10,-48,-86,-16,2,8,-96,-39,-53,-95,-95,10,-9,54,31,-77,44,-26,85,12,-5,-83,52,28,37,-28,-93,-6,39,-16,-127, 
  /* [33][0][][] */ 3,52,24,13,24,60,26,-37,15,13,-20,52,23,-49,5,12,-4,20,-9,-47,-23,-4,5,9,34,-12,19,12,-46,-57,16,28,28,91,-39,-8,-3,-32,51,-30,21,-43,9,-40,37,-26,127,0,63,36,-45, 
  /* [34][0][][] */ 20,9,39,-28,26,-127,-8,-114,12,-68,-39,-109,-48,-39,-14,-26,19,15,-7,8,-42,25,-36,-36,-51,-33,14,-5,-11,-118,-76,42,-13,100,103,-13,-22,-40,86,-51,0,-34,13,0,-31,-3,33,14,3,-20,45, 
  /* [35][0][][] */ -2,42,-31,22,2,54,-32,-61,14,70,104,-8,24,13,-26,-24,0,47,-9,-7,-15,-41,44,21,35,26,-9,19,0,-81,-13,-13,32,17,-7,7,-22,-60,30,-35,-5,127,8,41,-24,-6,-12,-24,79,-14,42, 
  /* [36][0][][] */ 12,0,37,-19,-4,8,-18,59,-7,-44,-49,-2,92,18,-41,-101,40,-8,-21,-92,-13,34,72,-15,58,12,-55,8,-98,78,-57,124,-127,0,-6,23,-120,105,66,-97,10,43,2,7,-24,46,8,59,-18,87,-40, 
  /* [37][0][][] */ 8,36,-26,49,-11,48,-49,-14,60,-80,-22,-23,1,-51,4,52,-13,70,8,44,-46,16,-53,38,-4,25,11,-1,9,-9,-52,-31,-67,-93,-10,-12,-38,-23,57,6,-25,107,-1,-27,23,37,-23,-27,-14,24,127, 
  /* [38][0][][] */ -27,-1,-17,24,-37,-107,54,-76,-87,16,108,4,95,57,-56,-12,8,48,-22,127,-70,79,69,71,2,29,-75,-26,-20,30,61,2,101,61,11,-26,43,-36,7,-69,11,-15,40,-14,-33,-90,-29,-7,62,9,62, 
  /* [39][0][][] */ -69,-61,-99,-6,-16,-23,-21,7,-16,31,30,1,17,-56,-3,-17,-76,-6,-54,70,25,78,-31,17,-44,-68,-26,-79,127,-42,-119,-82,-24,85,38,3,-51,41,14,54,-26,20,34,-25,23,21,-17,-56,-25,-57,-20, 
  /* [40][0][][] */ 36,42,-10,120,-4,-10,-64,47,53,-86,46,-4,-2,-58,-117,127,23,-57,5,-66,-7,7,2,16,-10,-8,-112,-68,2,-19,-72,-6,-60,12,-39,31,-46,-29,33,3,-9,15,-28,-34,22,40,11,-32,-75,-10,42, 
  /* [41][0][][] */ -40,27,14,6,2,-1,-84,40,35,1,56,6,39,73,-27,-17,71,-37,110,47,-22,-53,37,28,21,24,-14,3,-6,-15,77,-127,-20,-41,17,-33,67,19,-35,2,16,49,38,-49,-15,-31,0,-46,18,69,-119, 
  /* [42][0][][] */ -23,31,19,-6,-61,1,39,83,-26,-39,-5,-30,35,28,0,36,-12,48,-34,-87,-20,-5,-19,-40,-15,127,-43,14,-38,-59,-3,-23,67,42,-64,-26,-12,62,30,17,54,26,30,3,-13,34,-23,-23,-11,-31,20, 
  /* [43][0][][] */ 17,-9,57,18,55,-2,-22,-92,66,9,-66,63,-96,-15,26,19,-17,13,5,93,-74,-35,-40,-53,-17,-31,-106,-41,20,14,66,11,36,26,-127,-15,-51,18,24,-7,15,-39,74,58,50,-26,15,-75,-5,17,16, 
  /* [44][0][][] */ -84,38,2,23,-44,40,43,-41,53,17,13,3,76,-33,29,28,-3,53,29,-52,10,-40,27,-13,-127,72,-8,-5,17,-62,18,48,-21,-22,11,0,-72,-64,-54,-41,-7,-48,22,9,-14,-22,57,11,-21,-45,-20, 
  /* [45][0][][] */ 40,-6,-34,99,-26,-88,-32,-76,-2,-57,7,-82,42,0,-61,-13,-4,15,-16,-50,-118,-44,15,38,-23,9,-31,20,-19,-71,1,-36,127,34,-59,-10,56,-57,0,29,13,-117,-57,89,-35,-81,-57,27,-24,25,11, 
  /* [46][0][][] */ -46,-13,-31,76,-18,-84,-9,-48,-41,-14,-55,106,24,-49,-18,47,-23,-53,-30,-30,-52,-5,-29,14,-127,-40,7,97,-1,-32,6,56,13,29,-12,-69,-1,7,-10,-12,7,-19,-38,-42,8,-56,-17,-69,-41,1,22, 
  /* [47][0][][] */ -3,127,12,-7,-41,36,43,12,11,39,29,4,37,-12,-8,-77,21,15,25,30,-49,-2,-3,-57,-55,-28,-22,-3,11,19,-20,-36,14,37,-108,21,-113,-44,-55,66,-21,1,-68,-16,-17,29,-31,-10,66,4,-70, 
  /* [48][0][][] */ 1,21,-41,-11,45,-29,-30,-57,2,-44,-29,-36,-11,81,21,37,1,54,-28,-6,-68,-35,-16,-29,-11,-7,-43,-3,17,24,127,-28,-13,-11,-21,21,24,-44,-24,41,9,-53,-7,53,27,-3,13,0,-17,-25,-2, 
  /* [49][0][][] */ -10,-45,-78,-71,-56,-5,-61,7,15,20,31,-34,-127,-24,35,-37,-8,76,17,-19,-20,-34,-65,94,-12,-30,-11,30,11,-37,-39,-126,9,7,9,-46,-33,93,46,15,2,-23,-27,-22,-23,16,-30,37,-46,-40,-46, 
  /* [50][0][][] */ -127,19,28,48,22,72,25,51,-81,-89,-43,85,2,24,45,7,-34,34,-22,48,42,14,-67,16,-51,4,24,-41,-64,-48,12,-28,-65,29,-64,-101,0,42,-4,-100,-7,-38,9,-67,13,-28,111,27,16,-74,17, 
  /* [51][0][][] */ 13,10,42,29,27,28,42,-21,-25,43,41,-3,61,37,-11,5,6,7,50,17,41,10,-18,7,2,0,37,-34,37,-13,-10,44,89,-26,-13,66,-2,36,-15,34,-3,12,7,11,127,29,13,-29,3,-16,57, 
  /* [52][0][][] */ 8,5,86,43,-14,-14,53,-9,52,-36,-19,41,-25,33,31,-43,-23,-67,20,-14,51,21,-127,-54,-62,-4,47,-40,20,-11,-73,1,-24,25,-34,16,-2,-14,38,1,14,21,-36,-42,-43,-29,-9,-6,-15,-20,-56, 
  /* [53][0][][] */ -33,43,23,22,-29,3,127,20,-25,29,3,-15,-102,8,40,-20,-63,-33,48,-62,-60,11,37,-2,-57,69,-14,34,-18,58,-3,-46,-27,-4,-70,-42,-10,-30,5,-1,43,5,40,-54,4,26,-38,-1,2,-15,-22, 
  /* [54][0][][] */ 69,-6,121,110,63,-43,-56,-41,-39,8,1,32,-26,28,-9,-118,-41,81,10,70,-15,19,-33,-23,20,12,25,41,13,28,-17,3,23,-77,-74,-10,28,56,7,-64,-24,-58,102,-127,-83,12,115,-53,-12,-2,-62, 
  /* [55][0][][] */ -14,-39,1,6,31,-2,4,-46,34,-17,7,29,-18,1,13,-11,-28,-1,-19,62,-18,-38,127,21,-23,-22,-51,-12,13,-18,11,-35,-18,18,-39,-9,8,3,-24,21,11,-21,34,4,5,-5,49,26,5,-8,-19, 
  /* [56][0][][] */ 83,-37,51,34,29,-49,-50,49,21,-71,-23,-68,-102,-23,-26,-16,31,-64,71,-31,-13,51,53,14,-13,-19,77,44,6,24,-79,5,2,-14,13,-5,-34,9,43,-5,-8,47,-22,-30,105,8,127,23,-24,12,-2, 
  /* [57][0][][] */ 61,-2,-44,8,19,33,15,20,88,64,-80,53,-4,-46,-45,96,-27,63,-60,-83,-21,34,1,-15,104,7,108,53,-95,-2,-76,-23,-30,-40,127,-52,28,55,-7,60,-30,-90,12,47,15,-50,-31,-1,-100,-5,-65, 
  /* [58][0][][] */ -55,-7,-22,32,4,-69,8,-14,52,-27,12,61,-21,9,34,-84,21,-9,42,-94,27,-48,-39,-18,63,-35,-2,5,-44,37,127,-71,32,53,-120,8,-25,46,-25,2,-2,48,24,29,-10,76,8,35,93,33,38, 
  /* [59][0][][] */ 36,-74,-68,72,8,27,108,-1,74,-33,103,-29,127,41,-82,-22,-65,-6,107,-29,27,-15,18,5,-55,98,-53,57,-4,29,-78,53,45,49,1,-79,-19,87,37,0,-4,-12,-22,28,-1,-35,-28,-32,-121,-9,-88, 
  /* [60][0][][] */ -20,47,31,-28,27,-2,14,-119,-34,-4,9,-22,30,25,9,-28,59,-7,-19,6,-81,-43,-29,-9,17,76,15,37,-25,-13,62,-16,60,0,-127,-3,13,114,-14,51,-22,4,8,-13,-13,75,0,60,-27,46,-58, 
  /* [61][0][][] */ -2,26,3,-18,40,-11,21,11,-19,-22,29,61,-13,6,50,15,-4,16,4,127,-32,-57,19,-20,-25,-6,-73,-34,-7,-19,37,87,-76,37,5,16,68,-58,-5,9,32,5,14,-57,33,-56,-24,66,-60,-43,3, 
  /* [62][0][][] */ -40,-31,-27,-18,-79,-27,-41,-35,6,-16,-10,-14,-47,-127,43,86,-14,35,44,-50,-21,-68,-85,-37,-2,-105,8,9,-40,-29,-65,-17,63,5,-87,-57,29,-42,4,-41,-1,-97,-61,-26,77,20,58,36,-12,12,-66, 
  /* [63][0][][] */ 20,-5,2,21,4,-18,-21,9,-67,18,98,18,-84,-33,-57,70,127,22,8,100,1,-98,-43,37,9,-51,45,68,-29,-58,25,-54,-53,107,47,-50,26,95,112,3,89,-23,-116,-26,10,-55,-37,-11,7,88,42, 
  /* [64][0][][] */ 30,-89,-29,-30,-20,-69,-33,-48,20,0,21,50,-22,70,105,64,8,-5,95,41,-8,8,-60,71,5,-41,-10,-4,-40,-33,34,-111,-81,28,39,2,-17,30,40,70,21,71,22,-48,67,123,-7,-59,-34,61,127, 
  /* [65][0][][] */ 50,-44,48,5,20,-12,53,-23,-10,-56,4,3,-32,-49,-58,-24,-54,-36,13,14,-55,-6,-50,-24,94,8,18,2,54,-27,75,110,1,127,76,27,8,-105,-32,-45,28,63,-27,56,-86,99,-21,8,-15,-6,-31, 
  /* [66][0][][] */ 85,1,-43,-27,69,69,89,42,66,-4,-59,-40,-17,-79,-71,127,-27,-12,-42,35,-52,72,71,42,108,49,116,53,-20,-11,-30,-8,-44,41,18,5,-60,-41,71,31,73,103,23,96,23,-15,-10,-13,22,21,-17, 
  /* [67][0][][] */ 16,-3,-27,-53,-56,-11,-48,29,-5,-38,51,29,24,-33,-94,-31,52,39,60,35,13,3,71,-63,36,12,-23,15,-41,-22,-23,-60,-93,26,27,33,28,-56,45,127,-25,-31,-73,-20,-57,61,54,33,-7,-42,-71, 
  /* [68][0][][] */ -3,22,-45,-10,-63,-4,-41,-28,1,102,25,-2,76,38,32,0,-3,-6,-79,-28,-3,27,-9,35,-63,-37,42,-127,59,-64,48,12,6,39,47,-66,8,72,106,26,35,75,-5,47,28,34,-15,26,39,-17,16, 
  /* [69][0][][] */ 3,-18,72,-31,84,-36,-21,25,47,34,-21,27,43,-24,25,39,-3,-27,59,85,70,57,67,11,18,-2,-45,18,-76,-33,67,-74,-42,86,-127,-45,-23,-33,-38,18,30,4,-70,-95,-18,-79,-12,-24,-10,37,45, 
  /* [70][0][][] */ 22,-1,35,-26,113,77,3,47,28,-44,9,-25,-39,3,63,30,-5,-57,65,-50,-87,22,-45,60,-18,-103,1,69,-61,17,-35,-28,3,5,-5,-2,-30,-26,93,-49,14,-61,-73,-38,72,-58,127,28,30,-3,-76, 
  /* [71][0][][] */ 31,-84,0,72,-36,-11,124,36,27,-77,53,-7,-7,65,-53,98,58,-33,-10,-4,5,-27,15,66,53,8,53,73,38,-61,-54,-86,-57,-19,-77,17,7,-76,20,-74,64,-44,-3,1,-85,-47,52,-127,6,-34,-42, 
  /* [72][0][][] */ -16,-24,61,62,3,-26,53,66,63,17,51,46,41,44,14,-127,-27,9,34,6,26,-37,10,13,-26,29,-50,-62,-48,58,-13,92,34,22,-5,-75,-61,26,20,-52,-10,-4,4,-83,-14,-44,17,15,99,-25,-33, 
  /* [73][0][][] */ 33,-21,72,64,-61,-3,4,34,-34,84,0,-9,41,43,-100,-25,-25,9,-67,-102,30,82,-84,30,127,26,14,-68,67,19,-32,48,85,-21,22,6,38,46,-18,25,-20,41,46,-12,13,52,-34,-94,79,-59,-45, 
  /* [74][0][][] */ -38,-33,6,32,-31,-24,-20,-19,-7,-24,-44,35,46,-6,-108,103,-26,16,0,1,-12,19,70,-96,-28,10,28,23,37,-6,-27,-60,46,55,-85,-49,-17,22,73,28,75,-66,127,-3,15,-96,-48,-109,8,-26,-28, 
  /* [75][0][][] */ 12,-83,34,8,14,-5,-24,-105,12,-108,101,-9,-14,51,48,31,-23,0,69,30,-35,16,35,99,-91,40,-86,-28,-57,-118,80,-44,39,-23,-50,-16,22,-21,18,2,-72,0,-127,-79,-21,81,28,-112,-43,55,-25, 
  /* [76][0][][] */ -5,-63,89,12,9,49,13,57,10,54,-8,26,-14,23,-9,83,104,-107,-63,8,-19,63,55,-74,-127,22,-74,-84,-1,34,46,-73,-79,70,-6,-40,-41,-16,79,-26,79,-100,-50,-10,-83,14,-127,-51,25,10,33, 
  /* [77][0][][] */ 1,-83,10,59,41,44,-9,32,52,-39,-28,30,-26,64,45,-5,7,-16,-5,95,58,-25,-19,11,7,20,7,51,-47,-24,62,-7,-114,-76,-13,13,-36,-62,-93,-62,-35,-9,-28,-103,-41,45,-31,3,-127,-60,-5, 
  /* [78][0][][] */ 60,1,-20,102,-13,-110,-2,-105,61,-32,-64,43,-127,0,-32,-112,47,1,-14,-1,-92,0,-53,15,-120,33,58,-93,-49,97,97,118,111,-41,-4,-52,34,-25,37,-15,-37,9,13,-30,-4,6,-76,88,12,-14,20, 
  /* [79][0][][] */ 103,-21,30,109,-37,-49,-32,12,26,42,15,-28,59,-13,-5,88,33,-60,52,45,-44,46,35,33,82,81,-15,-41,40,-29,36,-69,-127,38,-22,26,75,-37,-33,46,-13,-16,36,67,21,6,23,-49,-47,-56,19, 
  /* [80][0][][] */ 47,-18,4,37,-9,-17,-68,58,-19,-20,35,58,101,-12,7,38,4,117,27,127,-23,-100,-45,10,1,93,4,-8,-58,-27,-21,-2,-17,-47,74,-33,-103,-10,-47,69,12,72,94,-55,9,-94,55,-29,74,48,-98, 
  /* [81][0][][] */ -52,10,11,-48,-23,-16,-60,-2,4,-14,-56,-42,-7,-7,1,2,17,12,41,-32,-14,-10,-19,34,-39,20,32,13,-1,-60,-9,-64,7,29,-40,-6,-10,18,-57,-18,-37,-44,-10,40,-25,-43,127,-70,7,-8,32, 
  /* [82][0][][] */ -62,-22,34,61,-25,14,-6,83,43,-32,21,9,22,127,26,2,88,-3,-82,107,77,-97,70,35,-64,-5,25,36,-42,-21,-67,-1,30,74,-41,-23,6,-2,-24,54,15,42,22,-26,14,14,-17,-36,45,-3,50, 
  /* [83][0][][] */ -55,-16,-47,-98,-71,-51,71,-74,-34,55,-64,6,49,-22,-82,17,-4,26,-84,81,-26,112,67,-16,-119,64,83,-46,-81,-51,4,-92,-21,-94,-86,62,127,-40,11,89,-33,-75,-64,-28,117,71,80,-66,-18,-8,-42, 
  /* [84][0][][] */ -16,24,79,-34,-10,73,-8,9,-27,9,-17,-76,-28,79,63,-62,-50,-6,12,111,-51,8,-93,6,53,-66,46,-27,-22,1,64,-38,-8,5,-5,-16,31,32,-48,-27,-5,50,23,-7,-13,127,22,-7,-44,28,-21, 
  /* [85][0][][] */ 11,34,-33,74,-37,-9,-2,47,18,-77,64,89,-3,-33,-37,14,40,-42,-12,15,28,51,114,-28,-59,-7,20,127,8,-60,43,-82,-6,78,-8,3,47,-107,-26,-8,29,-108,37,-20,4,84,-14,-41,-11,-28,27, 
  /* [86][0][][] */ 22,2,-42,-19,-32,35,-6,-127,19,-33,-20,-4,14,18,45,-1,8,12,-33,-26,9,-9,49,31,37,4,-13,1,38,86,11,2,21,-4,14,-22,46,-25,42,-23,-13,10,-1,-3,25,37,7,4,50,-23,31, 
  /* [87][0][][] */ -15,-39,54,111,-44,-8,63,-127,10,-58,-18,25,-56,-51,-71,-72,-9,74,17,46,-23,-38,-5,22,-102,2,54,-73,-11,41,71,-29,98,16,-43,-65,-58,-13,26,-18,-25,-46,-75,-40,31,5,35,33,-40,8,-114, 
  /* [88][0][][] */ 25,57,-56,-15,-127,-92,8,22,19,9,15,-58,-60,-22,-13,10,-35,19,-23,15,20,-32,25,8,-39,-34,-18,-57,-7,-64,-93,-47,104,5,60,-47,-18,73,54,47,4,37,1,-25,-21,-28,94,-38,-86,-14,-22, 
  /* [89][0][][] */ 37,0,-34,63,-17,30,-22,35,48,-21,127,-60,37,-53,-24,24,-21,3,-2,-85,-12,1,24,-99,0,-49,57,16,-73,-23,23,103,27,-70,24,-44,-54,107,-35,-16,-18,43,22,-8,-10,97,-60,36,13,-14,54, 
  /* [90][0][][] */ -56,-86,-69,6,-31,-57,42,-18,41,-4,45,-12,24,-52,-17,-35,-14,7,41,-19,53,127,-61,2,-19,-63,-45,-4,8,10,28,-24,48,23,-36,-14,-9,38,32,-42,57,-11,-16,16,-13,-14,-30,-124,80,48,-41, 
  /* [91][0][][] */ 6,-24,-19,-14,-6,-30,-18,-20,30,-23,-33,-11,38,-92,9,34,29,-36,15,56,23,16,34,23,-1,-24,-28,-37,34,18,1,-127,-19,16,-68,6,55,-40,-45,-19,14,1,2,-11,13,-26,-4,3,-1,-26,-3, 
  /* [92][0][][] */ 6,66,-118,-18,-6,-11,10,20,-41,61,73,-69,78,2,32,37,30,5,-60,2,52,-23,-49,-64,-28,-30,2,-74,20,0,4,127,90,-2,0,73,-56,30,26,-22,-16,0,-38,55,12,-46,-21,-14,2,-19,66, 
  /* [93][0][][] */ -20,35,1,-25,-3,32,-43,32,15,64,68,-15,-19,34,7,12,13,25,5,4,-10,20,1,39,-1,-11,20,-39,-58,23,73,-56,28,-16,75,-6,7,-74,105,84,3,18,-19,27,-7,51,-74,-11,127,5,-27, 
  /* [94][0][][] */ -24,12,-10,-74,11,-101,-5,-12,-31,6,13,127,0,-71,21,35,-50,-44,13,45,-64,-72,95,-29,66,113,62,-103,3,38,40,-64,26,10,-27,-48,32,13,9,-51,66,-116,71,-54,33,51,-63,-71,-10,12,10, 
  /* [95][0][][] */ -40,-2,6,7,24,8,23,12,72,15,117,-9,13,-22,-45,22,-84,51,-82,51,119,63,56,-14,18,-27,-40,-72,-35,43,16,-74,57,27,-54,41,46,-31,127,12,24,70,-38,35,-16,-62,-19,-30,7,-64,67, 
  /* [96][0][][] */ -56,69,-66,8,-82,-24,-39,24,-31,-42,24,10,71,31,-17,-16,46,-11,10,70,-12,8,28,30,67,-35,38,-33,23,-25,40,-1,21,46,37,-42,-12,44,-11,26,-49,32,12,55,5,-37,17,-38,-127,-18,-9, 
  /* [97][0][][] */ -85,2,-37,127,13,-23,-50,-32,27,-39,-67,-39,44,40,38,-64,-50,4,104,-89,-95,-25,52,44,11,107,39,-66,-22,-27,6,86,1,44,-2,-47,51,30,29,-51,-6,24,-63,-25,-30,-20,-30,-24,24,-54,-61, 
  /* [98][0][][] */ 17,-18,-68,10,119,53,57,-38,-15,43,30,-13,41,-2,-8,1,11,124,-39,18,40,24,-10,32,10,21,50,-88,25,-58,36,32,-12,-40,43,-9,26,-4,31,19,-27,110,-101,86,-22,20,-36,-9,-23,56,-127, 
  /* [99][0][][] */ 71,10,-38,-109,-4,-8,-77,-28,30,1,-8,-3,-49,-107,106,-85,63,-59,-3,87,28,127,-33,48,37,-15,42,-44,45,59,35,91,-88,113,95,9,15,105,16,40,-71,-44,-3,67,38,-55,75,1,-36,74,-5, 
  /* [100][0][][] */ 86,-56,40,18,-23,-17,20,29,-2,32,30,-10,-6,-69,127,-15,37,5,35,10,3,-27,-41,23,34,70,-21,-19,16,-10,-12,31,11,39,19,-49,-13,-37,-18,9,-4,-5,-7,18,2,6,37,-30,-81,-68,-63, 
  /* [101][0][][] */ -55,-59,-12,-37,-74,27,-20,-34,-22,-36,-7,66,-9,-28,-23,-3,-23,41,63,65,-44,83,57,37,29,14,7,6,18,66,-66,-27,14,-29,-3,-6,-8,127,4,24,-14,75,-35,29,-22,-48,4,-60,-82,32,-105, 
};
const TfArray<4, int> tensor_dimension12 = { 4, { 102,1,1,51 } };
const TfArray<102, float> quant12_scale = { 102, { 0.0041326084174215794, 0.0025668612215667963, 0.0023246924392879009, 0.0018046129262074828, 0.0026606498286128044, 0.0025579819921404123, 0.0071715638041496277, 0.0020098169334232807, 0.0017902413383126259, 0.0023408860433846712, 0.0028990777209401131, 0.0035622406285256147, 0.0048589259386062622, 0.0026612044312059879, 0.0015295193297788501, 0.0052927960641682148, 0.001968777272850275, 0.0016832026885822415, 0.0027348662260919809, 0.0025720398407429457, 0.001740908483043313, 0.0042181345634162426, 0.0034253525082021952, 0.0019255907973274589, 0.0014498155796900392, 0.003329036757349968, 0.0060970531776547432, 0.0025147837586700916, 0.0024380737449973822, 0.002915774704888463, 0.0014936939114704728, 0.0019415488932281733, 0.0016752851661294699, 0.0025170175358653069, 0.0029114650096744299, 0.0023691498208791018, 0.0017532529309391975, 0.0039176135323941708, 0.0015914798714220524, 0.0043003768660128117, 0.0022402878385037184, 0.0034041735343635082, 0.0027838347014039755, 0.0028312043286859989, 0.0027415815275162458, 0.0034775380045175552, 0.0034895476419478655, 0.0033699707128107548, 0.0042601986788213253, 0.003758549690246582, 0.0039597311988472939, 0.0042903386056423187, 0.0033933201339095831, 0.0035190777853131294, 0.0044568362645804882, 0.00404772674664855, 0.0026220837607979774, 0.0015826119342818856, 0.0023001525551080704, 0.0029287077486515045, 0.0039519928395748138, 0.0034707966260612011, 0.0014127133181318641, 0.0049269888550043106, 0.0021164671052247286, 0.0035100963432341814, 0.0024107845965772867, 0.0041835159063339233, 0.0031880282331258059, 0.0018844208680093288, 0.002621430903673172, 0.002330634742975235, 0.0029762913472950459, 0.002862769179046154, 0.0021808508317917585, 0.0027156544383615255, 0.0027083843015134335, 0.0049705463461577892, 0.0020470414310693741, 0.0024331596214324236, 0.0026386992540210485, 0.0034954780712723732, 0.0040194760076701641, 0.0018916062545031309, 0.0039108740165829659, 0.0019724967423826456, 0.0035603516735136509, 0.0023578281980007887, 0.0036220462061464787, 0.0023249913938343525, 0.0029127357993274927, 0.0048723039217293262, 0.0038823049981147051, 0.0030628368258476257, 0.0025002590846270323, 0.0019510023994371295, 0.0045102010481059551, 0.0034026848152279854, 0.0029460764490067959, 0.0024847909808158875, 0.0027264512609690428, 0.0048709223046898842, } };
const TfArray<102, int> quant12_zero = { 102, { 0,0,0,0,0,0,0,0,0,0,0,0,0,0,0,0,0,0,0,0,0,0,0,0,0,0,0,0,0,0,0,0,0,0,0,0,0,0,0,0,0,0,0,0,0,0,0,0,0,0,0,0,0,0,0,0,0,0,0,0,0,0,0,0,0,0,0,0,0,0,0,0,0,0,0,0,0,0,0,0,0,0,0,0,0,0,0,0,0,0,0,0,0,0,0,0,0,0,0,0,0,0 } };
const TfLiteAffineQuantization quant12 = { (TfLiteFloatArray*)&quant12_scale, (TfLiteIntArray*)&quant12_zero, 0 };
const MODEL_SECTION(EI_MODEL_SECTION) ALIGN(16) int32_t tensor_data13[51] = { 31607, 12291, 21145, -12227, 31980, 21062, -6937, -7119, 23102, -2440, -5696, 31793, 22404, -5872, 48863, -7904, 2544, 29506, 30866, -941, 39801, -5953, -4656, 15380, -140, 25735, 35687, -1457, -82, 22180, 573, 1641, -2262, -3136, -3590, 35104, -506, -2329, 20401, -296, -2076, -7950, 30596, 28889, 13494, -2918, -4752, -934, -9035, 38310, -11116, };
const TfArray<1, int> tensor_dimension13 = { 1, { 51 } };
const TfArray<51, float> quant13_scale = { 51, { 0.00010008797835325822, 0.00025609738077037036, 0.00016448348469566554, 0.00010799951269291341, 0.00010684588050935417, 0.00012988902744837105, 7.1496229793410748e-05, 0.00012654761667363346, 0.00012164911458967254, 7.7676406363025308e-05, 0.00010617187945172191, 0.00013353124086279422, 0.00017391754954587668, 7.9691075370647013e-05, 8.8592416432220489e-05, 9.3669390480499715e-05, 0.00012627179967239499, 0.00012067239003954455, 0.00011197566345799714, 5.7894372730515897e-05, 7.1765185566619039e-05, 6.6060405515599996e-05, 0.0001019999326672405, 0.0001858745381468907, 9.7584554168861359e-05, 0.00013513963494915515, 9.2176873295102268e-05, 7.2456263296771795e-05, 6.8402259785216302e-05, 0.00015449205238837749, 0.00011942887067561969, 0.00025130019639618695, 0.00011410392471589148, 0.00011705562064889818, 0.0001546896091895178, 8.7672720837872475e-05, 0.00012147776578785852, 7.4194853368680924e-05, 0.00014108626055531204, 0.0001489835703978315, 0.00018477613048162311, 8.8111810327973217e-05, 0.00010249154729535803, 0.00014271841791924089, 0.00018708530114963651, 0.00010332927922718227, 0.00013917585602030158, 0.00011082167475251481, 7.290631765499711e-05, 7.8788580140098929e-05, 0.00014114633086137474, } };
const TfArray<51, int> quant13_zero = { 51, { 0,0,0,0,0,0,0,0,0,0,0,0,0,0,0,0,0,0,0,0,0,0,0,0,0,0,0,0,0,0,0,0,0,0,0,0,0,0,0,0,0,0,0,0,0,0,0,0,0,0,0 } };
const TfLiteAffineQuantization quant13 = { (TfLiteFloatArray*)&quant13_scale, (TfLiteIntArray*)&quant13_zero, 0 };
const MODEL_SECTION(EI_MODEL_SECTION) ALIGN(16) int8_t tensor_data14[1*3*3*51] = { 
  /* [0][0][][] */ -59,-75,-127,127,-127,-126,118,-37,-101,127,77,-124,-79,77,-110,-93,120,-127,-76,31,-36,48,87,-127,121,-66,-127,95,113,-120,-25,55,119,-45,18,-127,60,3,1,82,58,-29,-80,-76,-47,-6,93,82,122,-121,109, -80,-57,-114,127,-93,-127,79,-58,-127,108,107,-127,-77,78,-93,-58,127,-75,-67,39,-47,26,127,-15,127,-67,-102,127,127,-127,-32,127,127,-14,22,-107,127,-6,15,79,-28,110,-70,-127,-88,2,93,94,127,-127,127, -28,-20,-13,21,-53,-15,63,-34,-29,42,29,-32,-29,16,-56,-24,70,-37,-30,-12,-69,16,29,-76,17,6,-45,21,-11,-7,-20,10,-4,-26,31,-28,14,7,13,2,-57,114,-29,-11,-4,-35,-5,3,4,-58,37, 
  /* [0][1][][] */ -118,-72,-103,126,-78,-85,79,-27,-104,82,93,-108,-127,18,-127,78,-66,-53,-100,100,-124,90,72,-45,104,-127,-87,94,127,-124,49,-42,54,97,127,24,84,112,-127,31,43,101,-126,-111,-79,53,127,127,123,-117,7, -127,-127,-111,119,-43,-46,127,-79,-102,119,127,-127,-115,50,-74,50,-23,-85,-127,95,-127,115,70,-69,85,-91,-115,89,97,-98,53,-32,56,127,110,-20,74,123,-103,33,-1,127,-127,-108,-127,65,105,113,120,-115,-41, -19,2,-14,0,-5,-39,-111,-65,-24,38,53,-14,-10,7,-32,53,-47,-10,-20,13,-39,20,45,4,36,9,-7,7,20,-55,12,-25,-41,12,57,-14,26,-1,-12,-9,-27,78,-56,-26,-32,39,-12,13,22,25,-52, 
